#include "LayerWeight.h"
const int16_t GLOBAL_PRECISION = 15
;//=================quant==================
const float quant_output_scale = 1.217275;
const uint8_t quant_output_zero_point = 94;


//=================conv==================
// Cout
const int32_t conv_bias[64] = {250,133,-655,-414,287,425,252,675,374,45,346,509,923,567,-103,338,-282,-51,-225,212,514,-116,-355,713,-553,-614,-379,70,-275,536,68,-432,-311,-360,454,1057,989,376,787,619,-577,909,261,440,-326,837,57,-74,622,678,-236,195,-73,670,-599,-691,364,927,590,-453,36,-38,1109,564};
// Cout,H,W,Cin/Group
const int8_t conv_weight[576] = {28,56,-9,127,29,-98,15,62,-69,127,-69,3,70,19,-64,25,-25,13,34,-71,15,11,-127,5,-27,-107,14,-28,-89,-128,-1,4,-17,-47,-94,53,-17,3,-51,-35,72,-10,67,127,-13,-70,77,-34,23,87,-96,72,127,63,127,-69,55,-43,56,-58,119,102,-34,45,127,12,-23,82,108,-90,77,14,-25,-60,75,84,41,-41,61,127,-115,32,-128,-127,-25,-67,-38,0,0,40,24,-74,-53,36,65,-43,-16,65,127,-58,58,72,107,-52,-19,127,92,42,60,-18,127,14,-50,57,109,63,100,90,-92,-6,92,-45,6,127,4,12,50,-47,127,-36,-64,-105,-128,106,-98,52,-84,-10,36,46,-29,105,29,-128,-38,-93,-102,127,-14,76,80,75,56,111,83,-6,109,-104,-128,3,27,-71,-46,93,-128,-12,29,-34,34,-68,-85,-127,-18,1,-24,96,-11,-49,-6,85,58,88,26,118,127,39,-50,32,125,103,40,-25,92,65,-33,-52,-128,-91,70,40,44,-115,-15,16,-128,-92,-38,-128,-27,59,-95,-46,13,-77,10,6,20,64,-43,-70,-128,-95,119,-120,-105,29,-75,-100,51,57,-127,-104,-80,112,-81,28,33,-61,-73,-64,20,39,-128,-69,-128,45,-61,-40,32,9,41,-78,-20,-64,127,-75,-34,-50,-51,-4,-86,-15,-40,-38,-48,127,104,86,33,6,93,78,-39,66,-127,86,-23,8,-87,-26,23,-127,-63,91,-128,-58,-53,-39,36,10,-56,127,-52,-90,37,-35,-64,104,34,-128,31,-68,-43,-82,-55,15,34,80,-12,5,13,127,27,-41,77,33,83,106,67,-55,80,79,127,39,87,80,77,-64,99,127,-82,-6,108,-123,127,-108,-97,97,104,89,-36,-31,-128,112,-67,127,34,41,126,96,-46,-44,-11,118,-33,-7,-54,112,118,127,-108,-128,53,-48,-62,-63,-24,-54,61,52,127,-18,127,78,104,13,127,-4,17,14,-87,90,-27,55,104,127,-21,-116,-50,46,33,-128,27,119,26,105,-97,-66,48,-111,-83,-128,55,-124,-70,-93,-128,8,16,-100,-97,-115,-30,-9,97,21,-18,-45,33,-128,3,101,9,-69,22,-5,-128,-76,45,-1,89,0,127,24,15,75,-12,51,-62,-11,36,-30,-6,117,86,-27,127,-23,-10,-21,-29,-80,16,-28,65,-93,-127,-60,60,-67,-76,-52,127,37,9,-4,125,12,-49,68,-33,-128,19,1,-77,20,21,-60,-52,125,-79,-61,127,35,-15,114,-128,-35,-88,-102,99,-97,-6,96,-84,-30,43,-49,34,-122,-128,-106,-115,29,-58,127,62,-98,37,-106,25,78,-43,-25,60,90,-102,-56,101,-97,119,127,-75,101,46,22,127,4,6,-6,102,20,-29,-12,-64,-87,-2,69,-128,8,-79,127,1,-2,52,-33,43,39,9,-128,30,-3,-114,15,8,-66,-100,-72,58,127,-25,-120,86,58,-108,91,15,51,24,127,17,-12,-17,48,-78,49};
const uint8_t conv_output_zero_point = 0;
const uint8_t conv_input_zero_point = 94;
const int16_t conv_M[64] = {354,520,269,449,453,307,482,325,433,307,694,514,283,279,548,366,403,398,448,519,267,598,515,255,345,493,571,411,561,518,696,320,423,587,591,301,293,371,265,469,337,249,449,317,221,165,496,587,486,390,586,731,452,241,273,379,316,249,391,394,356,302,215,427};
const float conv_MF[64] = {0.01078966,0.01586631,0.00821644,0.01371152,0.01382011,0.00936881,0.01469590,0.00990566,0.01320458,0.00936243,0.02118444,0.01567686,0.00864413,0.00851682,0.01672734,0.01117122,0.01230138,0.01215568,0.01367493,0.01582355,0.00815836,0.01825726,0.01570551,0.00778877,0.01053504,0.01505264,0.01741772,0.01253793,0.01712423,0.01582204,0.02123785,0.00977883,0.01291583,0.01790099,0.01803535,0.00919665,0.00893837,0.01133673,0.00808724,0.01430295,0.01027866,0.00760519,0.01370373,0.00965884,0.00674075,0.00503535,0.01512309,0.01792750,0.01483998,0.01189368,0.01786820,0.02230226,0.01380163,0.00735966,0.00834390,0.01157467,0.00963658,0.00758525,0.01194447,0.01202570,0.01084946,0.00920954,0.00655772,0.01302245};
// Cout,H,W,Cin/Group
const int16_t conv_weight_size[4] = {64,3,3,1};
const int16_t conv_stride_size[2] = {3,3};
const int16_t conv_padding_size[2] = {1,1};
const int16_t conv_groups = 1;


//=================depth_wise_separable_conv_01.0==================
// Cout
const int32_t dwcnn_01_0_bias[64] = {3669,2043,68,525,-584,-52,-185,800,1743,263,2872,1037,2480,-3777,-806,248,1547,-2917,-2365,-2919,2451,-1481,-1847,-159,-1676,261,1110,-1649,329,-769,551,3264,-126,-98,1429,2304,533,1392,129,1141,-553,-3659,-850,-1348,961,382,2486,-1379,1273,-438,1656,1586,673,-187,606,-1725,846,-1716,2213,-2796,-2271,1325,-635,-1784};
// Cout,H,W,Cin/Group
const int8_t dwcnn_01_0_weight[576] = {-125,-15,-43,-128,30,-104,-78,22,-34,39,-110,58,-4,-87,-7,-1,-128,81,-17,127,-33,-2,-45,21,-39,-32,-52,-24,71,94,87,-96,88,-96,-128,66,-89,127,12,-72,-88,113,100,-81,117,90,-43,-49,7,55,100,9,-103,-128,-30,21,-38,-128,69,-21,19,103,-9,-20,127,-2,-40,23,-79,-2,-43,-67,47,17,27,-76,-92,20,-128,-33,3,127,-83,37,-49,-3,-14,-124,86,-19,-4,-128,-10,70,-118,-3,-71,-58,27,-85,-74,-127,10,-33,-48,116,89,19,4,-79,-128,-71,-41,-30,-41,36,-22,-38,103,101,14,127,92,81,78,21,-118,97,-128,3,-34,10,81,97,48,85,61,-21,81,-13,-40,-128,-54,53,-122,4,-18,82,-127,-102,51,-55,-114,81,44,49,120,127,-49,-63,108,-1,122,109,55,55,-42,87,121,-128,-46,76,72,127,-42,102,-63,21,-77,113,120,-30,-73,-128,-74,-36,-76,-13,-64,12,-34,-2,58,-2,-27,127,49,42,23,127,-17,32,12,69,17,21,-41,-15,0,-34,-24,10,55,-39,-11,127,35,62,46,72,-99,116,127,-49,60,26,-128,-49,17,108,-71,28,28,-73,85,48,-31,-3,-57,48,-47,-128,-96,71,1,-3,-124,127,5,-60,78,85,-119,72,-119,110,71,37,-17,-128,66,127,-31,27,20,76,-45,-113,66,-26,13,-124,-10,20,-83,-81,21,127,43,-33,-59,21,-43,-76,9,-75,-127,44,67,96,-26,-110,86,3,69,-128,-26,73,-97,-47,-36,104,-128,-18,44,47,-21,50,-56,-128,82,-16,-115,15,-27,35,-105,86,-128,-112,106,-8,-61,41,43,-110,64,-27,38,44,81,-12,-128,41,94,84,-115,-128,43,-12,-58,-118,61,21,-51,-38,-35,-39,68,127,-127,53,29,-116,107,-128,-51,-63,31,-57,-47,60,74,-82,103,127,-67,-15,-4,83,49,114,114,102,-128,-60,89,118,-6,95,16,77,-20,-80,127,-106,60,50,33,34,119,-9,-9,127,-107,44,82,67,-82,127,-99,-75,-35,-87,-18,83,-102,109,-81,94,3,-128,54,-86,38,92,-48,22,-36,-106,-87,-34,-128,-64,2,65,26,13,-6,29,127,-42,-93,98,-128,13,-53,0,-21,-64,55,47,119,72,-23,49,-18,-8,-127,-40,24,49,-2,-61,-71,-118,91,-44,-128,-48,-81,24,-34,-85,-1,127,-64,20,108,78,4,64,3,-54,-108,-128,-93,127,-70,-65,65,0,-10,-51,12,2,-128,21,-12,48,-117,-37,20,55,51,86,63,-18,-4,24,-79,127,-31,57,82,-43,-55,48,35,-105,-26,66,-128,3,90,69,91,50,47,127,-55,-104,-128,54,-25,-123,-89,95,-37,-41,33,94,-37,77,100,86,-79,127,88,-45,80,-22,95,127,-11,31,65,14,20,127,-3,-74,49,-106,-91,44,-36,-89,24,3,-127,90,115,-106,18,85,-81,32,24,-64,54,59,127,57,-48,67};
const uint8_t dwcnn_01_0_output_zero_point = 0;
const uint8_t dwcnn_01_0_input_zero_point = 0;
const int16_t dwcnn_01_0_M[64] = {134,144,454,169,123,171,182,196,207,310,196,175,319,151,176,326,325,147,124,176,296,216,278,303,146,263,164,197,216,235,204,150,286,193,161,131,266,194,170,186,154,145,193,178,188,287,128,230,300,362,150,173,169,292,303,198,127,208,142,136,189,133,126,258};
const float dwcnn_01_0_MF[64] = {0.00410313,0.00440632,0.01386097,0.00514913,0.00376737,0.00521403,0.00555515,0.00597012,0.00631949,0.00944938,0.00599095,0.00534854,0.00972666,0.00461055,0.00536027,0.00996359,0.00993020,0.00447291,0.00377134,0.00535625,0.00903370,0.00659708,0.00848228,0.00926144,0.00446966,0.00801138,0.00501097,0.00601805,0.00658538,0.00715741,0.00622568,0.00457631,0.00871440,0.00589705,0.00490175,0.00399768,0.00811960,0.00591077,0.00518654,0.00567673,0.00468720,0.00442814,0.00588089,0.00543659,0.00572993,0.00875880,0.00390665,0.00702886,0.00915581,0.01104980,0.00457060,0.00527627,0.00516740,0.00891962,0.00925162,0.00605192,0.00386522,0.00635826,0.00434193,0.00414664,0.00575493,0.00406293,0.00384945,0.00788046};
// Cout,H,W,Cin/Group
const int16_t dwcnn_01_0_weight_size[4] = {64,3,3,1};
const int16_t dwcnn_01_0_stride_size[2] = {2,1};
const int16_t dwcnn_01_0_padding_size[2] = {1,1};
const int16_t dwcnn_01_0_groups = 64;


//=================depth_wise_separable_conv_01.3==================
// Cout
const int32_t dwcnn_01_3_bias[64] = {2346,70,5350,2671,-4395,-2027,3357,3941,5351,419,4212,177,4625,321,1124,3830,935,-609,5306,190,2492,1894,983,-3068,650,2668,2407,-309,4348,-2020,-1905,3702,3470,5466,3049,5567,3439,2759,2155,2507,-865,-3426,4225,-5724,3811,4281,7617,181,-3457,-3706,-4853,-438,-5060,1168,3947,4529,-62,8324,2890,-105,7639,1790,859,2217};
// Cout,H,W,Cin/Group
const int8_t dwcnn_01_3_weight[4096] = {127,51,-47,-80,-7,-44,-49,-10,-11,-28,-58,-29,-43,-32,29,-48,23,-49,11,-46,-60,17,-15,-8,-13,-26,-25,18,-83,-27,-12,-53,8,-19,-45,-15,-11,-38,-48,-31,-30,12,33,105,24,-17,62,47,-2,-56,19,-22,-39,9,-1,33,6,33,-23,107,-38,11,45,47,-39,-124,9,-63,68,39,-64,-88,0,91,84,77,73,-8,-23,14,78,27,107,-13,-50,-67,-25,4,-105,-1,24,-40,-23,2,-69,-49,23,109,-66,89,-127,-5,39,-72,2,80,11,-45,-9,103,-116,-48,47,-66,56,76,-36,-81,-48,40,52,2,24,-22,120,49,-55,0,9,-59,90,-48,27,-17,-22,-77,-26,22,-96,-20,19,-33,0,45,-21,6,-67,3,72,-31,-18,-89,-30,49,-49,-8,76,10,-28,-22,127,83,-58,-52,52,-82,-70,-28,-75,7,-41,54,-89,-13,-26,20,27,-55,2,-37,-87,90,-55,-31,-97,60,-12,-51,-49,-52,3,69,-25,-23,-20,21,19,80,-50,14,112,-73,30,-27,127,-42,21,45,-16,-108,38,-29,31,24,-2,-42,109,-8,-80,-104,-37,21,-69,19,-80,-127,-17,85,31,-22,-66,77,26,43,67,-81,-24,-28,37,-21,-29,0,5,5,-117,-30,8,36,9,-38,63,-41,82,-85,31,-104,-25,-33,-1,33,-51,2,97,14,-54,49,-43,95,-24,3,-27,80,57,37,43,29,7,-40,-11,127,-62,17,-7,4,71,55,-91,63,45,-38,-39,10,-10,-38,69,-8,94,56,-81,11,47,-73,14,-73,55,3,-41,8,-16,-33,91,63,-8,-6,-7,-24,-1,41,21,9,13,-38,90,18,24,44,35,-53,-58,-16,-88,60,79,-18,-31,-21,82,38,-46,-47,18,-90,-2,-8,78,67,4,-83,42,5,-2,62,37,35,-8,25,-47,115,-44,-26,26,41,-51,78,48,-69,-22,-45,31,10,65,-115,-56,127,-41,57,-52,-62,-7,102,62,-19,-117,-10,-5,16,-78,-48,-30,-21,34,-24,-39,18,18,-33,11,0,11,-41,-117,7,10,-14,98,-72,-82,-46,71,63,-22,-31,-86,-67,-52,20,43,67,-89,-121,64,12,21,113,12,-106,-46,9,-126,46,62,78,-27,-84,28,58,-15,127,3,-6,77,29,14,-31,-4,-61,53,-98,-14,-92,47,-88,-36,19,25,-64,-18,-87,-61,-19,23,-35,43,-19,-74,10,25,36,12,-127,-34,56,41,22,5,98,42,19,-121,24,81,65,-35,-8,22,49,-36,48,97,32,-43,-34,-62,-14,-4,35,13,-23,-85,25,20,46,-51,1,-109,-51,-13,-11,20,-53,-107,-71,51,41,26,-45,9,15,-52,-17,60,-110,-127,-5,120,-120,25,98,10,-81,73,47,54,11,-75,-122,17,61,-63,-84,-69,-10,-75,-61,106,-67,47,-46,93,44,-37,-91,25,-43,-27,-105,32,-3,24,45,-70,12,-16,-41,-5,49,-2,6,7,-42,-30,13,127,-68,-74,-46,-32,-22,53,-39,-25,49,78,-36,-55,-4,-15,113,75,-66,-15,102,-62,101,10,84,15,-28,46,88,-108,27,-60,91,34,-13,56,-86,-6,1,-60,52,-68,-24,50,62,90,-31,-68,-45,-50,68,44,34,-41,21,62,-72,11,4,-79,-49,73,3,-46,-25,-24,-17,-35,-127,54,102,-108,64,41,-50,52,63,-14,22,16,51,-65,-78,44,11,-47,-31,-45,22,-46,-37,-32,17,-54,-127,-76,-3,-38,-25,41,-39,-78,0,-28,-59,20,57,55,11,-31,-80,58,28,-43,26,10,13,-67,-14,-12,32,-28,14,-8,-85,7,33,-31,-40,-48,-18,108,-6,-89,-63,26,2,-94,-12,49,19,-41,106,-42,-43,-76,15,-8,15,69,100,13,33,33,39,-34,46,1,52,15,55,29,13,-37,-38,45,95,-100,-126,33,-17,82,31,83,89,-50,60,11,66,29,18,-13,21,-35,-128,22,-53,-87,11,54,15,-86,-60,-1,-58,53,-23,-25,-44,49,-47,20,-42,10,-9,-19,-7,35,-45,-36,46,-53,-90,73,4,-68,5,-8,-92,-31,12,-100,-7,-1,14,27,-68,10,31,-57,-3,-40,59,16,32,-128,-13,15,22,-75,3,-30,-78,-11,22,20,38,-62,-7,38,24,28,-65,-4,-18,86,-2,81,-32,-46,4,21,-6,-50,-5,3,-35,62,36,-81,-107,-4,4,-3,33,67,-9,-82,54,-20,25,62,40,13,-59,1,-6,-31,11,40,10,50,-51,-116,-41,-6,47,-58,74,56,0,36,22,-128,-66,10,9,-11,-2,1,33,-35,-66,64,17,79,4,-9,-21,51,-45,15,11,37,1,-14,-27,78,17,-20,-10,-42,-65,37,-82,16,25,-40,0,-30,39,-41,-21,73,26,-57,-20,64,-20,20,28,74,-21,-29,25,-8,-5,-11,-24,28,3,-34,7,37,-8,-37,34,2,-128,57,-42,-30,38,-44,-3,48,9,21,-43,11,20,14,40,0,21,37,-5,-32,-53,63,4,15,3,-12,-31,-25,-63,-48,104,0,10,-63,74,59,-72,13,83,-57,-92,31,-40,53,-95,-32,51,69,-14,-48,-128,11,-29,86,24,-82,-21,56,-61,-22,39,-15,-9,-8,-40,-2,74,-35,-3,-23,22,-38,13,105,-35,20,-65,17,-29,-77,-35,-7,60,-21,15,-27,63,-29,78,-58,-27,-9,-6,-38,-30,-42,-28,-11,-67,48,14,56,41,35,-15,-68,61,-71,-12,127,16,23,6,-47,52,-73,-58,36,41,-40,-69,-56,-81,47,53,8,-15,41,57,91,-44,77,2,39,61,-38,-64,4,-49,11,61,76,-63,-44,-49,21,-60,69,39,-42,40,-85,-24,-59,43,0,11,35,-38,0,57,47,-94,25,-23,-6,-42,87,127,0,-35,-1,46,10,-43,0,-36,4,-22,-43,-19,38,31,39,8,-3,-50,42,-22,-6,19,-16,6,14,-26,35,117,-42,24,-48,27,-7,-48,18,28,44,70,-34,2,102,-78,23,-28,57,-48,14,55,-40,37,-45,42,83,-73,-36,-20,37,-34,-62,-24,47,-28,-57,23,-25,-49,-55,19,-59,-52,10,9,-9,-47,-10,100,-127,-97,80,-22,29,-34,-13,-5,-6,-75,-4,-38,-12,-53,29,-53,-47,-41,-57,-26,-56,-68,7,27,-1,-29,18,-75,35,24,52,-41,111,55,-75,-17,33,-18,84,127,94,-18,-102,-14,-21,-87,31,27,48,-51,-119,37,16,-69,56,-11,-3,53,-20,-50,25,-42,-24,7,-49,-2,-44,-48,6,-105,-4,-69,-105,53,104,114,78,21,95,59,-66,6,-47,15,-35,73,-1,-65,11,81,-114,-10,-18,89,-6,12,2,100,-4,-128,-112,29,45,12,23,31,0,-29,-102,92,-46,-15,2,-63,54,-103,-21,25,96,98,30,-45,-44,92,-22,-27,-115,0,-42,-24,-27,-97,-97,-57,9,74,44,18,60,-96,-74,62,-25,16,-61,98,-61,-15,-1,-79,-60,-39,61,48,9,-2,-32,92,53,-52,-127,39,-33,-2,77,37,-9,68,-25,-10,-37,-21,65,-94,-60,61,-29,15,50,-16,-48,74,-13,38,2,-86,65,-41,-32,-7,6,1,-58,-18,-17,0,-43,3,106,14,-10,85,37,-4,-35,-24,-32,-31,-64,3,13,14,-67,11,-44,0,14,-70,54,-35,14,-16,65,-41,-3,-60,-16,19,-33,-9,19,1,-61,1,-1,29,-128,39,-62,2,-8,43,20,10,-14,-12,-73,-2,50,-20,85,-33,21,13,-2,-55,-34,-59,25,-43,-1,27,33,39,4,-18,-8,46,59,-31,34,-20,-14,-26,46,-34,21,-46,-4,37,35,9,7,28,11,41,26,-20,-9,32,127,84,-15,12,-31,-5,-63,60,8,77,23,51,-40,-45,-7,14,-21,-10,5,29,-52,59,-9,28,28,2,15,80,20,25,-11,-2,-32,-107,30,68,81,48,62,-12,20,29,-71,-4,44,-21,46,12,-55,39,32,55,-40,-12,-22,6,-69,-33,47,-62,70,-73,54,7,3,19,11,-35,-8,-24,4,9,-40,-25,-26,-32,19,-36,23,-35,-16,-37,-58,-9,25,35,5,15,12,-77,16,-54,4,55,-3,-15,-4,-9,0,-4,-11,0,-51,-8,31,127,-4,-20,1,9,-38,-15,-32,-10,-68,98,21,-4,-22,27,30,63,-55,-43,50,-10,34,68,-12,42,-24,14,20,-25,9,11,-41,31,-77,-80,-21,-43,52,-25,-59,26,-94,-61,31,37,-75,9,-27,-26,81,64,47,9,-47,-22,9,45,-52,-128,39,-82,-51,5,-12,4,-37,85,20,12,-11,67,44,5,60,-36,-12,-66,9,52,-56,-11,-46,-37,29,15,46,9,31,33,-34,8,-33,52,-45,10,-30,13,-49,-63,-10,-7,28,-68,-74,77,39,-43,-1,-44,33,-12,-57,-23,-12,26,6,25,53,-17,-71,-53,52,-51,28,76,-36,-89,-25,15,-70,56,23,68,-27,-38,-38,-28,-104,11,31,-5,-52,79,-128,40,23,-63,19,-10,87,-44,8,12,9,1,-2,-8,59,-4,-122,73,121,-27,-14,-50,4,-5,38,-42,24,-76,-20,127,-106,78,-12,11,56,3,-17,43,52,9,-10,-14,85,17,46,-11,-72,-79,50,-77,-43,-115,33,14,-13,-59,-40,103,-9,-73,12,-21,34,23,-25,47,30,-90,9,-98,18,2,-14,-8,-74,-10,-97,-27,68,-28,-38,-4,75,-18,-12,35,51,49,-33,27,40,51,-37,40,-22,8,-6,-107,-26,74,-9,-7,72,-3,47,-62,-25,-15,36,-9,-69,-12,86,-15,-104,-17,-23,17,4,-18,-128,-55,-45,-13,-41,-97,-6,-35,35,-92,-56,-59,-82,2,1,-44,8,-48,-8,21,51,-6,-42,48,-31,-64,-9,19,38,76,58,55,21,-44,42,4,-36,20,43,8,15,30,49,52,-86,-78,40,37,-14,15,-26,87,-30,27,-84,32,-90,-80,81,60,-11,-21,80,127,-86,-34,9,-73,20,22,71,31,-40,-75,-26,22,24,-9,-15,46,-72,19,-18,53,-26,123,12,23,-24,15,3,25,13,86,12,-17,-8,81,-52,25,-8,-58,93,-29,-83,35,-92,-128,58,-57,22,-61,43,32,95,-32,26,-55,16,-29,59,-29,-58,28,126,-30,48,-19,24,82,24,-32,-28,72,-41,91,-40,30,-61,-116,-20,39,19,-25,-58,68,-82,-5,16,-29,-71,32,17,49,-81,-52,-37,-77,7,-9,-80,12,127,-35,-50,-7,-81,-14,-70,18,-54,6,-13,-24,-123,29,66,-108,13,15,12,73,11,-42,39,-45,-52,73,57,-46,-16,78,99,27,-17,-37,-38,35,41,63,-27,22,30,-12,76,-33,-123,84,-77,-57,-27,80,-54,-4,101,-8,14,-1,-56,38,56,-2,33,-15,-49,17,-52,18,-47,-10,-27,-39,-5,-128,-62,-22,12,41,-44,-2,86,-49,-6,3,26,19,-1,104,50,-99,-124,61,80,-59,47,-30,-43,-51,18,-14,69,-62,15,32,-20,-84,50,-10,12,9,15,-54,-48,21,-43,-53,20,24,-98,-13,-68,48,-53,-50,-21,-37,-53,32,7,-12,-128,-29,-7,25,-20,-59,54,-21,-9,-24,-12,56,1,-22,43,-102,38,3,18,29,13,5,-23,9,-32,40,21,43,36,12,-1,13,-5,37,-88,27,-75,-14,-78,-22,-52,-44,38,-20,15,17,-34,-128,15,9,20,-83,40,-57,102,26,56,32,-19,-77,75,-2,16,22,-66,74,2,7,-70,-85,-8,25,-112,20,0,51,-97,-99,-46,34,-67,-4,-27,-25,26,9,-42,-39,-37,24,18,-84,-16,-96,39,-31,-5,72,-18,17,-21,-19,75,-40,-24,24,-76,6,-40,-48,-11,-55,126,-54,-87,-104,-10,9,-6,115,26,-26,-67,-100,38,106,-75,8,-30,-16,-14,-29,-68,-80,18,-56,-48,29,-37,56,67,-13,-126,38,20,-1,64,36,-48,-24,76,96,-98,-7,-61,-84,-128,-70,121,18,-10,32,-27,-73,-81,-35,91,-28,67,-67,-81,50,-15,50,-128,-62,36,-6,-40,44,59,1,-11,-26,30,-62,26,-15,-28,-21,19,-39,-16,-21,-3,-32,-74,-59,-4,-26,-76,-24,21,-13,-16,-7,-22,-47,-34,6,-68,15,-9,-18,16,44,-5,108,14,13,7,-24,-41,29,16,77,-70,-60,48,69,6,28,28,20,-46,36,-4,44,12,-16,84,-39,36,58,42,-6,-24,-15,39,-22,-6,-3,-45,-14,-30,-31,-78,-24,46,-128,16,-53,46,-87,-51,26,27,-5,-18,-93,38,-31,-36,-11,-7,-61,-50,7,53,-20,62,-47,22,-27,-71,16,37,-15,37,41,31,2,18,-12,34,-9,-25,49,-6,-15,11,-7,1,-6,-36,54,48,96,76,11,-56,-2,49,-23,-40,28,-6,51,58,-28,-48,-37,-69,52,15,61,14,-27,-29,-24,33,-95,2,10,61,-59,27,-6,16,-55,-128,34,117,89,121,-21,-30,-36,-56,-5,22,-57,-47,-55,-21,-48,-21,10,-89,8,-23,-92,12,33,-8,-73,-45,2,40,-62,54,5,18,18,67,9,25,25,-57,9,79,5,-53,49,-47,91,-44,38,30,-30,42,15,-80,35,20,7,-37,-42,83,-17,-12,-41,-56,-48,-5,20,-15,-55,45,25,0,-128,-28,1,8,-8,-74,-45,-20,4,-51,-28,19,12,28,-45,-89,-48,35,-6,57,127,70,68,19,92,2,-33,51,69,94,-29,-65,-47,55,-72,-25,23,-70,-83,19,-8,64,-5,44,-14,-3,33,-126,110,-78,-22,-62,-10,-31,-19,92,8,47,19,36,-15,-109,-59,97,-109,-34,-55,25,68,55,-30,-82,32,98,52,-46,-49,23,-5,118,-99,-49,16,57,-79,-31,-8,22,-52,-46,-61,72,18,-48,66,-22,14,71,-12,33,-33,127,-12,8,-77,60,52,-24,20,9,-58,-11,-9,1,2,-86,-25,6,28,13,72,-21,56,61,40,24,-21,-96,75,33,58,7,105,7,38,12,45,9,-39,-37,-9,67,-7,8,48,-26,60,35,-20,20,-71,-21,-15,-22,-128,9,-23,12,5,-36,-35,-11,-50,-4,-48,-34,-32,21,18,46,-10,8,25,-80,-16,0,4,-76,-7,30,41,-27,51,12,-17,35,-21,-56,5,-27,-27,28,5,-36,-22,-39,53,-30,-48,-30,22,29,-64,56,46,-18,22,-21,-42,32,-35,1,10,-24,127,-78,-29,89,77,-9,-1,12,66,-44,70,-45,15,102,87,9,-13,41,90,7,53,14,2,74,78,5,-81,-8,-21,-17,-88,75,4,-13,34,57,-85,21,-9,-55,118,85,6,73,14,-18,64,12,-19,32,11,55,63,-110,-83,35,-36,27,69,-41,2,-10,-5,71,53,-71,6,-2,75,11,13,19,-95,-18,-14,75,-23,51,-78,29,0,-79,-62,-39,8,16,-27,-25,-3,-7,9,-60,41,10,-86,-69,-88,-108,59,-84,-21,58,37,-127,51,49,-38,37,52,44,16,68,16,37,-80,22,-19,44,-34,-9,-41,-18,-8,-31,11,-48,19,3,34,-32,-128,-27,52,-35,-59,-58,-31,30,-118,-14,-90,54,-47,-1,5,-90,-54,32,37,16,-16,4,61,-15,-25,77,30,-53,18,26,-32,-8,47,-75,4,-83,-8,-12,-24,-28,-38,10,-24,-21,-39,-45,50,32,-2,3,-4,-5,-1,58,35,39,20,20,40,-69,54,69,55,-5,-13,-48,-34,-4,9,22,-84,-19,14,-65,0,66,-69,-61,-96,-22,-28,-5,-60,-2,12,-29,16,-1,-79,-42,-50,-5,-63,-3,41,30,53,-35,58,-19,48,-93,19,88,13,27,-127,-20,-60,-4,-37,-62,-59,49,22,-116,-14,65,-24,68,-27,-49,63,81,56,-16,-91,-9,-10,17,19,18,-60,79,-8,36,11,34,22,-25,-22,32,53,34,35,115,-10,-32,19,44,57,49,40,-43,11,42,46,-107,-29,-43,-7,78,-35,-30,-97,-21,-25,-73,-15,39,81,-16,1,-84,9,-17,33,-20,-36,-42,78,-81,-128,-11,-89,-30,52,27,-64,-14,26,18,109,-83,15,-40,-44,92,-71,77,-35,-15,-107,50,26,20,74,57,78,92,75,-28,64,83,39,12,-65,17,2,8,-14,10,-21,68,52,-1,35,-83,49,56,9,-26,35,25,35,27,-114,4,17,26,0,13,26,-71,-11,26,-128,-31,58,25,47,0,-39,71,-24,-64,76,28,104,51,-37,-20,-127,24,93,11,-58,10,68,103,-12,16,3,-73,25,-1,26,-12,-17,-1,0,17,23,-24,-37,-28,79,-44,77,-34,-16,44,26,-114,121,37,-55,125,108,13,-13,-46,31,12,-87,-102,127,64,3,25,-106,-54,126,-128,-64,-109,-48,34,-9,70,3,9,49,96,8,108,-55,60,127,-77,73,97,35,92,98,25,6,26,30,-90,15,23,13,16,-118,-10,11,83,-43,-74,-15,54,57,23,17,50,1,67,62,-34,-80,-69,12,6,29,32,-22,60,78,-38,-19,28,-27,33,-39,-10,10,-59,-5,12,10,73,-2,-127,8,30,68,44,32,-32,25,-32,-8,-10,-61,-15,24,-100,-58,13,13,8,32,-19,-4,36,15,63,43,19,4,-89,58,47,-27,-39,-2,-3,-28,-1,-37,-1,117,29,16,-11,6,-23,42,23,-45,4,-75,45,41,54,-9,9,-17,15,43,-12,64,-26,-23,-86,33,-22,-71,-38,-23,-12,71,40,1,26,-6,-5,55,-4,-20,-7,48,51,94,70,81,11,-94,-50,62,-54,-19,2,-26,-19,6,-87,-2,122,-5,65,39,68,71,84,-1,32,27,17,-24,49,36,45,-44,-128,63,62,-9,16,88,104,-57,80,-39,72,46,-8,-111,8,14,-105,3,92,76,18,48,-33,14,-64,-35,-35,-110,53,17,32,-86,32,-40,-53,37,9,-41,61,33,2,-24,25,35,-89,10,-51,38,-84,-21,12,-73,12,-57,-12,127,-17,-58,115,-22,3,13,52,-3,-84,24,47,-25,39,16,19,-13,42,35,-51,-50,-38,-39,47,39,13,-97,-18,-42,9,28,10,10,62,-38,-45,55,84,51,-77,44,2,-7,-53,-47,15,-70,-63,-40,-12,-75,3,-39,3,36,-7,39,10,-42,-12,32,6,-5,47,-23,-128,-8,-23,-10,8,53,115,10,-90,4,-10,5,35,-51,-8,49,-93,-10,0,-11,-5,-69,1,-92,-46,6,-20,13,68,40,40,-67,28,-24,127,13,15,-62,45,-36,-56,-109,46,51,-23,-58,27,-19,-90,-93,88,21,-29,112,-43,-1,-37,71,-97,-81,-44,-100,-4,-10,58,-55,51,-56,-21,-9,-62,46,-32,-45,-36,-61,11,-23,-80,28,12,15,-18,56,-3,71,29,15,-80,95,-28,10,23,50,41,-4,45,41,-27,-7,-10,28,-67,-2,51,-82,-11,-49,-9,-7,-17,31,-22,-38,-72,-16,-60,16,41,-5,-85,26,7,12,50,44,31,0,-59,-12,-106,-8,-40,29,-2,31,-64,-7,-33,127,-38,67,66,-36,23,8,39,-45,-15,36,-45,-23,82,-50,22,-43,-110,-42,-39,-2,-12,-14,-34,-41,-114,-50,-10,-18,-113,40,9,-34,-22,-128,-49,58,5,90,-35,2,18,59,-1,1,8,-1,-75,20,-102,77,-17,-21,-30,-9,-73,-80,50,-81,-123,66,-11,67,-93,-9,-39,54,-27,-73,54,21,-84,-37,2,-31,-53,-29,-22,24,13,72,43,4,50,2,-32,112,14,39,1,39,-22,-11,-16,30,-54,16,-6,32,-26,-63,-51,-32,6,-32,-37,-41,-17,-58,27,-59,70,-16,30,-10,15,61,63,17,-2,-36,-104,-54,-3,-54,30,-128,25,23,-23,-39,-105,-11,3,-60,-93,-47,18,37,-15,-18,-47,-25,15,56,39,-21,2,-29,-48,70,74,48,-9,-15,5,51,60,56,45,35,-76,70,-35,-23,-23,-82,51,-7,-62,-66,-29,22,32,47,70,-102,43,-24,15,104,15,12,51,36,-110,57,-29,-36,81,-93,98,25,-11,-71,-10,-128,-16,26,-39,71,39,-43,-81,-1,28,-23,-19,-29,16,0,-71,7,-72,-54,-52,5,26,-57,9,-76,-78,-66,5,-16,30,-128,-45,11,-49,54,34,-32,-16,63,7,-50,-15,-1,-102,30,-33,-66,15,-20,21,-34,-41,-57,6,-82,-7,27,6,-71,12,62,-38,-20,65,4,27,-2,-33,15,-47,-58,-6,-6,-86,36,-49,44,10,105,3,-82,79,19,-36,-49,-101,-32,-54,27,27,-6,54,88,-61,-21,83,95,119,-34,66,55,65,-65,-55,-70,-48,96,23,-27,-69,-8,38,0,22,71,40,44,-92,18,-25,-9,-29,63,-35,-4,19,-47,-64,-17,22,-128,11,44,-19,-27,-11,22,13,-12,33,-56,25,53,-128,21,-33,-64,11,-36,-45,-3,-50,-75,9,-36,-29,-43,93,95,-95,-14,-20,-14,20,-39,-17,29,27,-25,-12,32,33,-35,19,60,4,-8,-17,13,-38,12,-41,87,47,94,-52,36,71,49,-18,14,63,1,37,24,-14,0,127,5,-54,-1,18,-20,0,20,-62,-57,34,43,2,74,19,23,-4,-2,67,-45,-105,2,-21,-5,3,-7,20,-39,32,-43,46,-55,35,-56,-14,-18,57,11,0,-40,-42,0,104,-117,-37,-15,-59,-13,30,-78,-7,-11,9,60,-53,-89,8,57,-55,37,-70,-93};
const uint8_t dwcnn_01_3_output_zero_point = 0;
const uint8_t dwcnn_01_3_input_zero_point = 0;
const int16_t dwcnn_01_3_M[64] = {163,115,147,128,203,157,153,159,113,135,165,111,138,203,241,130,110,194,150,109,146,183,222,183,221,190,139,131,173,237,197,135,173,246,150,113,164,188,121,157,149,199,190,167,157,203,115,131,158,114,141,148,167,147,235,168,197,96,165,126,147,170,153,202};
const float dwcnn_01_3_MF[64] = {0.00497209,0.00351811,0.00448123,0.00390559,0.00620931,0.00477613,0.00467229,0.00486269,0.00346300,0.00410839,0.00503462,0.00340261,0.00422405,0.00618748,0.00736549,0.00396549,0.00335240,0.00591762,0.00458405,0.00332509,0.00445571,0.00559163,0.00678697,0.00558343,0.00673509,0.00578764,0.00423252,0.00400557,0.00528749,0.00724091,0.00602214,0.00413162,0.00529169,0.00750131,0.00456344,0.00344369,0.00501171,0.00573310,0.00369258,0.00477702,0.00455604,0.00608006,0.00578736,0.00511104,0.00479297,0.00619101,0.00352012,0.00401280,0.00481388,0.00348457,0.00430420,0.00450832,0.00508132,0.00447762,0.00717701,0.00513049,0.00602618,0.00293148,0.00503627,0.00384784,0.00449892,0.00517745,0.00466262,0.00616026};
// Cout,H,W,Cin/Group
const int16_t dwcnn_01_3_weight_size[4] = {64,1,1,64};
const int16_t dwcnn_01_3_stride_size[2] = {1,1};
const int16_t dwcnn_01_3_padding_size[2] = {0,0};
const int16_t dwcnn_01_3_groups = 1;


//=================depth_wise_separable_conv_02.0==================
// Cout
const int32_t dwcnn_02_0_bias[64] = {749,1009,-1266,748,3511,-1738,-2217,-418,-1470,-2434,-144,-2611,1046,-1527,1401,2608,1735,2903,-873,1119,942,3350,-7599,-757,719,-1150,745,-416,-2805,4919,1884,-776,-1168,-944,-850,-13,722,3954,1104,857,-1052,1041,-2065,1810,3141,-498,-1422,133,-520,281,-1456,4595,2933,-2815,6008,-94,-432,324,348,3653,-797,-691,936,1652};
// Cout,H,W,Cin/Group
const int8_t dwcnn_02_0_weight[576] = {-17,-44,-30,-92,-66,10,49,13,127,-93,-128,-121,-103,38,52,84,94,50,45,-118,-75,87,52,-16,-35,127,111,41,-125,85,61,-128,90,-31,59,-37,98,2,-11,-43,-96,-48,-9,-128,-92,62,64,-128,4,-34,56,20,44,105,107,-127,-75,107,127,119,40,2,101,-71,-93,127,-47,-62,114,103,84,7,-29,127,-20,114,-18,-79,-11,-45,109,-50,-55,83,54,127,-94,87,6,66,-128,-51,-98,-70,40,78,78,92,103,-29,35,32,-70,127,-35,43,74,72,127,-35,57,-30,-92,8,-109,52,-19,-63,68,-56,75,108,-44,67,127,4,-36,76,-9,101,-54,-62,-127,-18,-66,-66,52,24,-128,-11,-55,-67,16,-84,-55,-8,-127,33,51,58,-62,-103,13,-22,-82,-104,-128,39,7,62,68,-126,21,9,-40,123,-90,-3,44,127,-54,33,127,-8,-84,14,12,-64,-74,-64,-59,-57,15,104,-34,-18,-127,-28,45,-2,-127,24,90,-75,-117,-53,10,-86,75,92,116,18,109,114,127,49,38,35,36,45,1,-45,17,82,27,-128,-9,-69,-128,-15,-8,100,-9,79,-30,127,-76,-42,-69,85,57,-50,62,13,-128,13,-28,50,-14,-35,67,-67,1,-105,-50,-2,127,43,-88,15,43,53,24,-8,46,-55,108,127,76,39,-15,-19,-102,58,-56,-127,-22,-99,16,-33,-49,-53,63,-61,100,-128,-39,-101,46,-51,93,-127,82,83,-80,59,96,-97,-128,113,-83,69,-58,47,44,23,103,50,-92,70,42,-32,127,22,-51,43,-110,127,-80,1,101,-6,31,19,-81,127,-108,-33,-1,113,-104,-104,118,-32,-15,-23,-76,-79,-128,-7,114,51,107,-128,-32,120,-112,-118,22,-74,-52,-18,-99,83,32,16,12,-60,10,-128,13,-110,-128,19,1,60,-100,96,4,40,-102,-38,-113,50,16,127,-16,31,127,-49,-72,70,75,-119,127,-71,-52,26,-128,1,111,117,35,105,-60,105,85,3,118,-9,-127,117,-87,-78,43,-120,-64,-2,40,16,-128,-79,-49,-13,-44,-74,-48,32,-51,105,62,-60,127,-24,5,127,112,-14,-32,46,18,-101,-11,29,-91,3,-29,109,23,-128,118,27,65,106,-2,16,21,-110,61,64,-128,117,-23,-49,127,-94,-70,-28,-48,60,60,-61,-128,76,125,-28,20,-64,115,-81,-81,-128,78,-37,-117,-21,-115,-111,-128,-10,31,45,-22,-40,102,-45,-124,-23,34,97,80,46,127,-16,78,-120,-106,-80,-75,-102,-115,55,-36,-39,127,-19,-3,17,-43,127,0,-122,41,-80,108,-113,27,-97,-13,57,73,110,-128,4,-44,84,32,-53,-2,-8,77,-128,31,-11,127,-90,-35,118,76,-75,-64,-29,-52,-12,-92,-95,96,-51,-95,127,-64,-26,-16,-64,-6,127,-36,60,101,50,-31,-128,-14,48,18,-17,76,54,-118,-71,-128,88,70,-57,64,77,-68,-108,-85,-82,-16,-50,22,-5,127,56};
const uint8_t dwcnn_02_0_output_zero_point = 0;
const uint8_t dwcnn_02_0_input_zero_point = 0;
const int16_t dwcnn_02_0_M[64] = {186,135,136,134,87,125,135,129,187,135,144,135,232,143,133,152,230,106,198,183,175,111,85,169,196,148,362,213,163,100,118,111,149,125,194,129,179,107,234,223,129,97,129,78,194,159,175,140,84,140,103,148,110,159,78,153,112,289,177,124,143,174,127,143};
const float dwcnn_02_0_MF[64] = {0.00568550,0.00412773,0.00416456,0.00408642,0.00265621,0.00380118,0.00412666,0.00394487,0.00569955,0.00412240,0.00438106,0.00410493,0.00707341,0.00435673,0.00407404,0.00464511,0.00700638,0.00323645,0.00604678,0.00557493,0.00534905,0.00338042,0.00258154,0.00517097,0.00598133,0.00450855,0.01105292,0.00650861,0.00497199,0.00304756,0.00358894,0.00338838,0.00454271,0.00381941,0.00593310,0.00392225,0.00544918,0.00327869,0.00714330,0.00680910,0.00394052,0.00295630,0.00393021,0.00239240,0.00591542,0.00486061,0.00534228,0.00425757,0.00257435,0.00427056,0.00313694,0.00450163,0.00336761,0.00485802,0.00238935,0.00465942,0.00342772,0.00882674,0.00538812,0.00378106,0.00435337,0.00529744,0.00386109,0.00436001};
// Cout,H,W,Cin/Group
const int16_t dwcnn_02_0_weight_size[4] = {64,3,3,1};
const int16_t dwcnn_02_0_stride_size[2] = {2,1};
const int16_t dwcnn_02_0_padding_size[2] = {1,1};
const int16_t dwcnn_02_0_groups = 64;


//=================depth_wise_separable_conv_02.3==================
// Cout
const int32_t dwcnn_02_3_bias[64] = {1787,-304,3443,-125,1922,7615,-92,3098,1925,5239,-344,2916,1813,-58,387,-1552,-439,-498,-1734,4328,2709,-3421,506,3347,2751,272,-372,4135,4227,-1791,-164,943,-3777,-2317,-3077,3660,4357,-3086,1959,746,714,-2391,2095,5395,-707,4243,838,3247,326,-854,-265,-2094,1218,821,-610,3500,4301,2278,1088,-1591,395,-405,-1279,4156};
// Cout,H,W,Cin/Group
const int8_t dwcnn_02_3_weight[4096] = {68,-31,-34,-69,37,7,11,0,-14,-10,-10,-71,-38,-28,16,27,-49,32,35,-59,16,87,-7,-95,27,-5,3,57,38,13,99,-39,-39,-49,-15,-65,49,73,79,89,-128,-11,-32,-41,-28,-26,-44,-53,-37,-29,-38,-45,21,70,74,-11,-53,68,-18,12,18,-27,-49,-37,10,-12,70,56,-27,-17,-13,53,2,-3,6,-1,21,-26,-100,21,41,-29,38,116,-60,-24,0,-24,6,27,15,-24,-7,-18,53,-25,12,-42,-41,32,23,-127,-2,30,-62,30,-79,-57,-32,17,95,-2,40,0,-50,-8,37,40,-91,-35,20,-14,-33,45,11,-9,47,118,-128,-51,15,-54,80,0,-52,-2,-15,-105,19,-16,72,-44,-32,-4,-82,-21,-12,35,11,-41,-4,-4,10,11,22,40,-24,5,9,-33,33,76,39,57,17,69,94,-56,42,-45,50,42,-62,16,-108,-35,-13,72,-9,-106,12,-40,-46,-37,4,122,-54,-109,93,-15,-101,-25,2,-57,4,50,38,7,-23,3,-16,-44,43,56,-24,29,50,7,-58,25,48,-19,-58,-8,8,-51,3,42,-54,36,-22,-72,28,-22,-7,-60,-67,-73,90,-4,71,-19,-38,-4,60,39,12,27,-38,35,7,-128,29,-109,40,27,-12,46,18,-28,116,59,87,24,-66,-53,5,82,-36,-47,-62,-83,52,44,-30,22,49,-15,-30,-66,-86,-3,-54,41,-36,-38,78,20,-108,8,-31,-12,-68,-15,54,77,28,-39,-61,-21,25,-9,-21,47,36,-77,46,31,-29,-59,-55,27,-27,53,4,61,-27,-118,127,33,4,18,-14,-54,49,7,32,12,-55,-8,78,24,-77,-49,-11,-1,-47,-43,9,-69,41,30,7,-3,-16,48,34,11,-56,-52,-58,-94,3,-105,67,-56,-38,53,-77,13,-7,-54,9,89,22,-77,9,-113,-56,-84,36,71,1,-34,-98,-39,94,7,70,-36,13,20,-69,-77,-68,-47,-14,-11,-14,36,79,-45,-128,20,-66,31,-53,-22,7,-15,31,-16,-41,-4,3,-46,-19,-82,57,63,-74,42,-57,33,-26,-10,5,45,5,-21,42,8,58,127,58,-22,13,36,32,28,-8,-5,40,-30,96,-19,22,-10,-35,-84,-5,22,-8,-10,-34,20,20,-120,-9,46,-74,34,11,81,-34,-17,45,-78,87,-128,47,-42,23,22,14,28,23,61,-27,-26,-39,-85,20,-21,-32,16,-36,-27,-11,-26,29,69,63,-86,106,-62,60,-32,42,-42,5,-21,-28,-73,-18,-71,-48,-112,-115,10,63,-22,28,50,27,29,0,-15,-3,72,-32,-19,11,-37,-32,-93,35,26,26,-48,66,-24,20,46,-90,-22,-43,-89,69,-26,-119,40,-22,-35,-48,23,1,-58,-54,-3,-4,14,-5,-28,51,-10,2,-76,127,-75,-126,47,8,6,8,75,95,66,-10,26,-92,-31,34,-58,35,-67,18,86,-7,-73,-36,40,-10,42,-37,20,-8,-28,17,-35,-25,19,100,25,0,-21,36,-12,8,66,-9,114,-128,72,-22,-2,-112,14,77,-10,-112,-20,86,-41,17,-12,-69,-49,-76,-91,-1,-36,69,-9,-27,-16,37,28,-99,-3,-123,-41,16,11,84,2,-61,95,-16,68,10,36,45,-83,-107,-99,-127,-4,60,76,88,-21,45,-88,-63,-94,50,75,-50,43,-18,-63,64,-32,48,-58,63,-70,35,-33,-67,-20,10,-2,53,-59,-36,58,84,-9,33,57,9,36,14,-17,0,-3,82,12,-84,-29,14,-49,-48,-51,68,51,37,107,-48,-109,-39,-60,-33,32,-44,7,-46,25,24,-35,127,59,21,7,-25,61,-9,76,-27,17,23,-108,-58,53,-39,-74,62,-71,90,-38,53,73,-79,22,37,49,-65,-26,-38,24,10,-64,24,-109,-24,-83,-37,51,-5,-38,61,-93,-121,-18,-53,-89,-48,38,-5,-1,1,127,116,-60,-63,-90,-52,47,-32,47,28,72,37,-61,-7,-50,97,-42,-62,49,32,-9,86,-45,12,-3,-24,-40,59,47,-1,-32,-47,-34,-23,-56,-7,-32,62,-7,7,0,25,6,-63,58,-14,-47,125,-56,25,9,-11,-49,-38,-12,28,-57,1,82,-21,57,-121,37,-1,-74,-11,-1,107,-128,98,-66,8,-3,-1,-30,-54,78,9,-119,-64,43,-14,53,2,43,-17,-34,-28,72,35,9,11,52,-53,19,-55,46,-77,61,-74,23,98,-94,-92,96,-14,121,59,4,-40,59,-31,21,-123,78,26,56,-29,17,-96,24,2,-19,45,-57,-21,30,-20,61,104,-88,15,114,31,-3,-87,-99,-51,-67,70,-68,-25,81,-13,12,127,8,-52,-90,109,-14,-10,24,14,20,-91,22,-28,28,-94,17,-87,27,-52,-55,-68,49,47,119,25,-8,42,28,-44,32,-20,-26,-20,5,3,24,-31,-15,-30,40,51,-55,27,-51,-1,109,-5,11,77,40,97,61,54,-31,-1,112,38,-72,-127,28,-73,60,65,-5,-121,47,-84,59,-72,-77,-91,53,-87,26,-35,9,7,56,67,-33,104,15,67,44,-45,-56,77,-24,-128,5,18,76,109,27,21,13,17,34,34,-17,-42,43,-54,54,-104,-77,37,-19,-18,-121,40,-21,36,44,64,27,55,-21,6,12,57,-71,-27,-33,26,4,90,109,-77,-35,6,-25,-56,-6,-11,4,-41,44,24,75,-9,19,71,31,37,-33,-10,-25,-8,-120,39,23,-2,-63,44,42,32,-67,-56,-33,45,3,-108,-26,-44,120,95,19,-16,-48,-28,78,-81,-3,125,-44,-116,1,-75,-27,-79,87,35,6,-24,-128,38,-17,-22,17,16,-15,-2,-8,-44,86,-66,-36,20,46,-36,17,50,-28,25,23,-5,32,84,-90,-60,-88,50,-128,53,80,25,-20,-96,-59,-12,-27,-35,-13,48,36,19,21,-14,-8,93,-28,-3,58,49,-2,-39,-17,18,70,-4,21,-13,-56,-63,72,2,42,-14,-32,-46,11,-19,20,31,22,50,75,-10,-113,117,17,4,-41,77,-51,127,13,-45,-7,12,10,75,7,52,-63,45,-81,-3,39,50,81,25,-108,-4,-43,53,0,95,59,-56,-73,-26,32,-29,32,80,-62,-12,13,61,-42,-59,-32,-36,-7,21,-78,-50,32,-93,36,-43,47,91,25,27,34,-11,-78,-44,71,3,69,-14,5,91,-53,116,38,-10,-97,42,-38,-4,-22,-23,-36,121,-27,-89,35,59,78,5,68,-31,-120,-52,-128,-78,22,-15,0,60,-22,-35,15,-12,-110,9,90,97,-76,51,-13,3,-51,62,-119,4,-57,31,-90,64,-112,-67,-80,-39,-82,41,-36,-123,-85,20,-12,105,72,44,-14,103,10,1,-8,23,59,-10,-54,34,-37,19,-34,34,68,23,31,22,-128,11,-30,73,-20,-51,24,2,-21,95,-4,33,-39,47,46,-15,-5,37,-40,26,29,12,-36,77,-18,-71,40,-37,-74,-53,-45,25,-37,-71,-59,-9,-3,31,-55,-47,-90,58,47,-61,66,-41,-63,-6,7,-38,41,-42,39,5,-62,26,97,13,15,-7,13,11,40,-20,9,59,2,8,60,-32,-51,-9,27,-11,28,-4,22,-43,70,-37,-16,29,-28,-34,19,-5,25,38,19,-9,55,-29,-9,-9,70,127,-33,82,1,-56,-96,19,29,-10,-34,34,45,-37,14,78,75,-10,-8,17,109,-25,-10,-71,80,5,-21,-6,59,-79,24,127,52,-70,-29,87,55,-41,-87,-73,-100,-3,-16,-96,68,51,43,-28,16,35,84,-68,-76,-118,101,-30,-44,-61,-54,-61,72,4,31,18,-29,-38,82,-79,-114,-41,74,-56,29,33,-85,10,20,-17,-26,-8,-49,111,95,23,-26,-23,41,16,-38,34,-31,12,-11,19,-78,-30,-77,-13,27,10,-1,-19,25,8,-26,15,-54,-4,-67,-6,-56,30,6,-33,-46,28,28,-7,3,6,-46,0,-20,-22,-47,-27,-55,-6,-16,-11,0,-32,44,17,127,5,-53,4,1,-48,-23,38,-20,1,-55,24,-71,40,-21,25,62,50,-40,-40,3,7,-25,36,48,15,-3,-16,62,11,-36,22,-81,-36,36,-24,-57,48,18,75,-28,127,-107,-76,-78,33,21,-1,-41,-8,-12,-59,-14,105,40,-27,-59,-36,-119,18,14,-28,-104,20,43,12,-61,-54,45,10,10,-3,28,2,-63,22,-96,72,13,20,-41,45,-10,22,-115,20,-57,-44,-45,22,-36,72,-63,-37,27,-36,-18,63,67,-56,-75,-84,5,-3,-36,-30,68,-9,3,38,-20,13,-14,51,127,-1,3,-16,-20,15,-78,38,70,-6,21,-67,-26,-13,-33,40,13,114,-104,11,82,-43,72,15,-65,-53,-33,118,117,29,-26,11,42,42,-59,0,80,2,20,-128,-98,-12,-56,-81,-49,-83,25,95,-53,-70,35,3,95,-70,-90,82,52,-88,-96,-39,-74,-24,50,81,-53,-106,35,28,-6,22,-7,-40,83,40,123,79,13,-10,-7,9,51,68,-18,-48,-28,7,5,-29,97,-26,28,44,-51,7,106,-106,-40,48,-47,28,-9,91,30,61,-84,39,126,11,-57,59,56,-96,-10,41,-113,-25,4,-19,-15,-98,18,44,-116,-28,-120,-87,108,-128,-47,1,73,-20,21,-53,-46,-87,16,38,-80,-61,-70,3,52,-51,-39,-58,-32,100,36,-121,102,-20,50,-118,84,66,11,-34,-1,33,25,-20,-31,-48,3,17,-35,-128,3,-30,12,26,-33,13,-62,45,35,13,-4,9,3,-23,-67,7,-38,48,-108,-5,-77,-19,-62,47,12,-40,-47,-12,2,18,-62,24,-10,-34,34,-91,-26,18,-13,-29,-47,14,20,-28,-6,39,54,-63,-7,10,-13,-18,-47,-11,-12,4,28,80,-20,90,-6,12,-32,-25,23,56,5,23,-124,49,-15,72,18,-7,-39,73,109,-54,-51,47,17,64,-19,17,17,46,-50,-36,51,-1,-29,-29,-40,-64,-128,9,82,-59,-15,80,79,-36,-10,48,56,42,7,-37,-88,23,91,-42,-51,-22,-56,19,47,13,-21,-25,13,-76,7,-28,30,-30,-11,83,-52,17,51,56,-1,3,-81,1,-60,-60,53,34,78,29,-43,-17,0,15,16,26,80,52,-8,31,25,15,13,-31,-70,18,-9,-25,15,11,66,-79,3,25,-128,15,9,-92,12,-64,58,39,-8,-35,14,-6,59,-16,-35,-24,3,16,-12,-40,-30,-71,-6,-27,-4,21,6,-8,-81,-46,-15,4,127,5,-3,-38,-50,-12,-84,45,34,31,-20,-60,-2,67,-36,-7,-22,46,-120,-18,-36,-8,45,19,-76,19,3,17,37,11,-97,-78,52,45,-45,17,22,7,72,66,13,8,48,69,38,56,98,26,32,9,29,127,58,12,12,94,-54,-80,-39,-14,85,34,30,51,33,32,121,-73,-2,-71,30,22,10,-6,88,-12,-22,-55,-60,-11,-50,45,-25,22,42,-22,26,0,-6,26,62,-119,44,-7,-69,-28,-62,2,37,71,-81,-30,15,76,68,-32,-21,9,-57,57,-81,47,53,-52,-62,127,49,-72,64,63,-58,4,67,-17,-30,-77,80,30,44,23,101,-34,60,-48,52,4,83,73,37,29,-29,-16,-59,46,-55,95,-34,-6,30,-44,96,-11,64,-71,-47,-52,65,55,-11,80,7,-47,-65,33,-25,-3,-55,-89,-46,18,28,33,6,-41,12,42,-49,-35,33,19,-46,-63,58,109,-71,106,-66,41,18,43,69,22,-9,1,44,-73,97,-29,24,-75,33,33,-24,-12,-50,-28,-26,-8,32,-22,44,44,-38,124,-59,0,28,65,33,-128,5,39,-57,-4,-14,84,40,6,41,101,-58,-45,-18,-79,64,37,-30,-10,-22,36,66,-56,34,-104,8,32,14,-3,-3,29,-26,-39,-33,-3,-59,-109,-2,25,-40,-44,-1,-53,-24,11,30,-58,-44,-15,-57,37,-44,41,-4,31,-22,-38,-49,-29,31,-47,-16,57,-35,10,127,13,49,-33,41,-72,60,44,-43,18,29,-28,-18,-24,23,-93,-17,41,-5,63,-39,-41,-56,-46,-73,47,7,9,71,-7,-38,11,-35,34,76,-10,-116,50,26,15,-58,36,43,-119,-59,5,-128,-15,22,4,-101,-101,-70,54,-24,77,22,69,-17,-97,-8,-74,-60,-53,-62,-16,-26,15,-19,-6,45,-72,8,-54,4,67,121,-15,106,22,-2,80,-12,38,32,18,-16,-3,-4,5,16,-25,75,-20,-27,21,58,70,10,-11,-35,70,-32,84,-33,73,10,38,14,55,-99,1,-18,58,-70,48,49,10,45,-51,29,-44,-62,-2,-73,47,61,67,-61,-27,9,16,-25,-28,56,-35,56,39,54,-19,127,-79,-59,-6,-2,-79,15,67,-9,-76,-74,7,17,-24,50,-117,13,12,88,-52,-29,53,-15,40,42,66,28,-89,18,0,20,50,3,-30,-117,110,-76,-46,-53,35,-60,64,28,-74,-59,-14,62,20,-20,12,-61,105,13,-42,114,22,-81,41,22,-32,17,-46,-12,-93,-18,-32,-81,-54,127,127,-12,-9,-7,43,-88,20,-46,-76,31,8,-102,-49,-21,40,-2,-64,-1,19,-79,33,-86,55,-38,-35,-58,-31,-40,53,24,-10,4,46,19,45,-3,-23,82,0,-45,-38,2,13,-1,-29,-18,61,2,34,50,-24,69,32,-59,-115,120,-117,16,4,7,9,23,89,-84,36,77,-38,0,41,-21,32,-20,-34,-70,-86,-99,3,-16,-39,-17,11,-49,-124,5,-34,62,-61,35,-79,10,-5,0,-23,58,-50,43,-45,-17,-4,31,-38,38,21,47,-41,36,53,-30,-35,15,-35,127,-74,10,46,35,-96,43,127,-3,28,-113,-13,-24,-46,40,-24,46,-17,50,67,-58,58,18,-58,-63,-50,-35,-25,-50,35,-4,64,-7,-7,-9,-21,35,13,24,24,72,-31,9,-67,86,24,-5,30,6,-91,-27,122,-31,-31,27,-7,-31,-31,-27,127,-39,-7,-43,15,42,73,14,-21,47,20,25,-19,43,65,45,-43,-41,53,-48,13,72,-56,8,-54,-30,-1,-39,12,-19,-105,76,9,-49,-4,54,-13,9,20,70,22,127,64,-24,-68,-22,-13,-21,-32,34,-72,-64,-103,15,-36,14,36,18,108,-9,-3,0,-35,-59,-19,41,-68,27,-88,55,-16,10,105,2,-49,-71,34,58,-57,65,-125,-90,-11,21,22,45,1,-40,-46,17,-75,-53,-27,-54,-3,-8,-37,19,-27,69,39,22,30,-25,-17,28,3,19,-25,-1,39,3,-31,-24,-68,18,-26,38,116,-10,-20,54,-25,-62,-98,-61,-27,-27,-87,0,-32,-49,46,-92,-33,4,-25,7,-128,-33,-3,2,-105,3,16,42,-55,10,69,-39,-81,25,1,-7,-3,35,-41,-54,11,2,-8,39,66,13,-41,54,-58,3,32,-19,-6,25,-3,90,-6,27,-5,47,-73,-38,41,127,27,3,19,-1,16,-40,-29,30,6,40,-61,-49,-54,50,-104,2,45,18,65,-16,45,65,-24,23,16,-79,102,-36,-18,17,-4,-82,-77,-55,-20,-20,103,-59,-8,-81,-112,-56,-128,-67,10,36,-23,24,-27,56,28,36,-27,27,95,-16,-57,-29,57,-1,-32,12,-14,59,69,4,41,-9,-42,113,5,-46,-10,-56,49,-22,-5,47,-49,-102,20,6,-23,-32,19,22,-39,40,25,23,-83,-64,9,4,34,-39,93,-36,-128,52,-4,60,20,111,79,64,-9,53,-59,27,0,-68,52,-64,-29,56,10,-74,-23,-53,-42,23,-37,-6,-86,34,88,-69,16,-11,68,-77,-38,-109,6,24,20,65,85,-73,-28,-4,-47,70,-66,63,-90,-33,-2,-51,-24,-38,5,-89,19,50,-1,53,-54,18,101,23,-67,-62,-53,28,-91,-41,-14,-64,-34,44,11,-15,-11,-28,-121,10,31,43,-31,22,5,32,43,-30,9,-17,-19,2,-15,14,110,21,29,15,5,35,29,-9,18,2,45,18,-48,60,-18,44,0,-92,-26,71,-101,-34,-13,-128,-48,20,-77,-72,27,-75,-34,48,74,19,30,46,-34,76,32,72,47,33,-21,-30,46,-18,-6,44,5,-54,-25,-60,-28,-61,58,3,42,-44,-36,-27,91,-4,-78,-91,-87,105,75,40,-115,-18,4,-69,63,-82,127,11,98,13,-18,0,-59,-90,25,-27,-66,5,22,19,6,-109,14,-23,-56,-28,55,-21,127,-20,2,14,-54,33,-57,48,-40,14,-56,-40,96,47,100,1,48,-5,-22,-15,-3,-13,-11,1,21,55,36,5,-21,-44,-54,53,49,-17,5,-62,-39,9,-17,24,-31,25,49,-16,114,-36,-1,72,-9,-31,16,-26,-34,25,-29,5,40,-5,-93,-85,-21,9,0,45,-24,27,18,43,-61,-12,4,-4,23,4,56,-10,73,20,-41,40,46,78,29,4,51,-128,-33,39,-8,65,-99,-13,10,-25,-6,-45,36,-50,-26,1,12,-57,92,45,-18,57,-94,-73,-17,12,47,-81,51,-25,13,-104,39,-39,-15,-42,77,26,-16,22,56,35,-49,-25,7,-23,-28,13,8,25,19,19,16,-28,-70,-22,-9,72,-7,37,30,19,-33,79,43,30,-16,-15,-76,-127,43,-58,-23,-42,35,26,-22,12,60,-58,37,122,-4,-23,77,55,-9,-28,48,-82,90,36,4,65,55,-53,-16,27,32,87,-26,-12,-66,1,-58,-12,-27,89,13,39,18,-71,-29,12,7,-18,-60,30,36,14,-34,-14,-18,-27,24,96,10,70,9,47,-34,86,-117,38,32,65,9,25,-1,13,-34,-28,-73,15,-25,54,66,61,-3,-69,-59,-13,-34,-93,-34,66,33,-37,10,-98,13,-59,37,-26,-29,93,0,-128,26,2,14,-113,-21,17,-58,-66,71,8,15,-86,-52,-18,-3,49,53,-58,-79,69,-12,50,-43,-15,-57,-52,-80,-25,-118,-3,28,6,-115,85,93,-10,-24,123,84,78,33,73,10,-75,99,14,55,126,2,-53,65,-7,59,-57,52,-91,-80,-36,-86,24,-24,-128,-21,-21,34,-33,97,30,49,41,70,-88,-28,24,-31,30,102,-9,-35,-5,11,-38,10,21,34,-44,28,-30,-16,-61,-8,62,75,30,22,-8,-76,-64,-87,1,49,74,-46,-38,4,-5,-104,127,9,-34,-47,64,37,18,25,13,38,27,0,-19,-49,13,-22,-124,-34,55,1,13,-37,-11,40,20,-52,-60,-75,-66,81,-33,66,61,65,2,-40,-11,45,-37,-45,-52,41,31,-55,64,-18,44,-46,28,-19,74,17,-36,21,79,5,-5,-100,-106,-14,-36,53,45,42,-48,51,-41,43,-22,-38,-14,39,73,8,-11,-64,11,-62,-11,74,-86,-25,-47,-42,-12,4,11,-128,-57,21,-16,39,-9,87,-20,3,51,42,-13,-7,-52,-32,1,-92,52,35,25,58,-13,-27,-98,-47,-14,41,-8,-55,9,-8,57,35,-92,-128,38,101,36,-109,39,40,-78,10,-66,-27,-58,-73,-8,14,-82,32,-3,-65,-122,33,-5,50,31,-4,22,-32,-78,-13,3,-86,-4,40,16,-86,20,-5,-34,53,5,-8,13,-128,-23,12,23,11,11,-35,-85,0,17,-21,-33,-61,59,-63,23,-55,-49,-6,14,-21,-10,-59,-15,18,51,-44,-1,-11,-1,7,48,21,87,-43,-42,-12,-9,98,80,20,0,7,-9,8,12,44,-28,-18,-62,-4,-20,-30,-10,90,70,-58,-57,127,-62,-71,-65,56,-6,-61,-74,37,-9,-17,-23,-106,30,62,25,-16,-30,45,-29,-2,10,-17,-32,0,-22,-15,-22,-27,62,-19,43,-11,46,-108,45,-35,8,29,49,-6,-37,-63,-36,-7,-14,60,8,56,24,-14,8,-14,61,-4,-21,41,-4,-56,-71,29,-42,22,-18,21,-44,16,-65,-56,16,-9,-60,8,-25,47,-29,-35,31,119,33,48,65,-21,-13,87,15,3,26,12,7,-5,-8,2,-31,-21,-74,-6,79,11,71,27,-44,-52,6,29,-11,-52,44,-13,-43,10,-89,127,17,22,-9,1,69,-12,-13,24,42,-13,15,-30,50,-38,8,26,37,3,-42,95,-40,2,44,-24,-115,61,-9,69,29,62,-40,95,61,-28,-42,-60,32,-24,-72,90,46,-51,-4,0,-104,-11,3,28,-44,-27,13,15,-70,-29,17,-13,8,38,-16,-60,-21,-43,-46,-16,-32,-19,14,-6,-25,127,55,35,-3,11,-30,-5,-17,75,-127,34,16,17,74,58,40,-81,22,127,-64,-11,28,22,49,-102,43,-23,-32,33,-66,53,-98,69,47,26,-77,90,-57,16,2,-84,50,-11,-93,-98,9,96,64,-13,13,18,6,27,44,53,-25,24,-9,-126,8,19,-50,12,-8,-66,-12,59,-3,8,59,70,50,90,49,-18,42,51,-32,41,19,-67,59,18,79,1,15,-19,-13,18,38,-69,26,-87,59,-102,34,-14,83,97,-8,-69,71,-10,-45,-8,66,-21,-57,9,38,12,-47,-55,71,4,-4,25,-52,16,96,4,-25,-69,55,17,-78,51,-58,-28,5,-127,23,-31,-90,-122,3,-74,-83,19,-51,-31,95,-10,-6,-22,-13,-49,51,-87,34,-25,59,-10,-4,27,37,-15,-31,-57,21,24,-31,-42,70,29,2,37,-57,-128,-83,29,38,-29,114,-50,-27,-73,-70,9,9,-17,-18,45,7,-7,-63,81,61,26,-100,-48,-90,111,-29,-27,-3,-39,24};
const uint8_t dwcnn_02_3_output_zero_point = 0;
const uint8_t dwcnn_02_3_input_zero_point = 0;
const int16_t dwcnn_02_3_M[64] = {154,128,116,152,153,69,123,107,104,68,119,119,102,128,76,152,78,116,141,76,98,159,103,151,116,122,122,97,144,119,154,147,102,110,92,138,96,143,108,133,88,140,121,156,147,80,96,114,107,118,102,140,124,113,126,106,128,158,140,151,131,127,114,124};
const float dwcnn_02_3_MF[64] = {0.00471013,0.00389948,0.00352829,0.00463431,0.00467554,0.00211232,0.00376420,0.00327956,0.00318703,0.00208433,0.00363078,0.00362563,0.00309763,0.00390523,0.00232125,0.00463200,0.00236965,0.00353531,0.00431777,0.00232711,0.00299122,0.00485584,0.00315499,0.00460220,0.00353253,0.00372978,0.00372455,0.00295112,0.00440488,0.00362164,0.00470807,0.00448919,0.00310866,0.00336443,0.00279310,0.00420764,0.00293161,0.00434909,0.00329767,0.00406140,0.00267527,0.00428397,0.00370723,0.00475715,0.00449452,0.00243473,0.00292524,0.00346910,0.00327729,0.00359648,0.00310116,0.00427658,0.00378771,0.00344697,0.00385790,0.00322282,0.00391348,0.00482947,0.00427581,0.00459725,0.00400259,0.00388927,0.00347379,0.00378783};
// Cout,H,W,Cin/Group
const int16_t dwcnn_02_3_weight_size[4] = {64,1,1,64};
const int16_t dwcnn_02_3_stride_size[2] = {1,1};
const int16_t dwcnn_02_3_padding_size[2] = {0,0};
const int16_t dwcnn_02_3_groups = 1;


//=================depth_wise_separable_conv_03.0==================
// Cout
const int32_t dwcnn_03_0_bias[64] = {-2012,-29,2841,2474,1734,823,-641,501,-1766,469,1773,-996,1600,-1674,316,1118,-416,-1586,-330,-1438,644,2821,1514,-228,1567,123,1499,-94,-1046,59,-923,1343,-295,1396,1068,202,699,2271,-2009,1449,-509,492,195,-894,253,2395,257,2014,594,1118,2211,2124,-1655,1785,231,-395,345,-397,224,246,97,93,510,1905};
// Cout,H,W,Cin/Group
const int8_t dwcnn_03_0_weight[576] = {5,3,61,-56,80,67,-2,127,9,106,-33,-81,30,-4,-41,-33,-6,127,-52,94,54,-52,-6,-60,-114,-128,-120,-128,-7,-90,48,-70,-96,89,-75,25,27,3,-48,47,-75,-67,1,-128,-7,92,95,-68,-128,-106,80,-82,-18,57,-23,-18,-37,90,60,-13,127,20,-70,-28,-58,-54,-51,49,-47,-127,98,109,-42,76,37,-30,127,48,7,26,65,-72,-10,72,30,127,-46,10,-56,-101,78,-81,36,-63,-48,1,-53,-127,36,-16,70,110,-4,65,-45,44,-60,-128,-69,127,85,-51,-38,-34,-57,-102,-79,6,110,-33,73,81,-15,-68,-58,127,-38,-98,10,75,-46,1,-64,127,-6,20,41,14,-103,-128,-80,-23,44,17,39,52,51,127,86,-28,-78,44,-56,55,-49,-22,98,114,43,-112,91,127,38,-72,-35,127,-20,7,-88,39,112,90,-55,98,-21,67,71,-107,99,127,45,127,-54,-84,-8,-117,-99,-2,82,85,45,-21,-16,-96,-128,-88,-39,-69,86,-128,-24,-9,-94,74,-97,-122,68,-31,-90,25,-100,-33,-32,90,66,127,-43,127,1,-78,-75,-77,-22,-19,-114,37,127,28,-41,-80,32,-54,-31,-30,-128,54,122,-104,27,48,-127,-40,49,127,-90,75,46,12,-118,-70,41,23,127,-14,-7,85,-55,-99,39,10,101,-51,33,76,47,-128,4,-12,105,-92,-102,35,-15,18,127,-22,-14,57,21,-9,11,24,20,-25,-86,118,-58,-128,-127,-25,29,111,107,-38,-84,87,50,31,-60,-13,85,-79,-10,-83,49,-127,-101,-117,5,-47,44,-74,-127,50,-9,-14,64,-31,-127,31,32,-32,11,81,-66,-16,-15,-65,-79,32,84,-87,127,-84,-79,97,-128,-5,-58,-65,69,-67,75,85,-61,52,93,-100,-12,84,127,-100,-70,45,-12,127,-106,-88,-100,73,-29,66,-68,72,127,101,-55,-61,-67,91,-38,-77,-106,127,-74,-16,-49,-22,18,70,-128,-18,117,-75,-68,40,-84,25,18,-26,-40,10,-55,127,81,-28,20,-128,54,38,-56,58,-71,-15,97,100,-109,34,-8,-85,-4,-55,-54,-128,-7,28,94,127,-118,47,-8,-58,-97,-127,-29,25,45,-104,-42,-107,106,-73,55,91,44,-105,-7,32,-20,-128,59,-60,-4,18,-43,95,-75,-128,-37,37,112,-98,-31,-19,-124,-83,-128,-71,-6,-48,-108,-16,-120,-4,127,-72,-39,-31,-91,61,70,114,127,95,99,-85,-57,-76,64,-32,-93,17,30,-10,-128,16,-26,84,54,47,76,-128,37,-96,-81,87,-78,34,-27,115,28,12,61,-128,-68,-25,-128,69,-56,13,92,13,8,-96,41,24,-99,126,64,-128,43,7,52,-128,67,-82,79,-80,98,27,-32,93,-128,-6,100,93,-70,20,-52,24,-23,0,-27,-16,13,-19,127,-103,74,-72,83,-39,73,-71,102,-128,4,65,-93,-54,-84,-40,14,42,47,-29,127,-121,74,-3,-128,-8,-38,-127,92,-54};
const uint8_t dwcnn_03_0_output_zero_point = 0;
const uint8_t dwcnn_03_0_input_zero_point = 0;
const int16_t dwcnn_03_0_M[64] = {294,358,302,260,247,406,368,322,272,431,384,238,377,206,454,297,576,335,316,332,326,194,278,352,310,560,207,317,322,361,235,313,331,351,473,349,336,265,231,256,518,415,246,274,222,440,406,309,378,322,297,226,263,250,321,364,338,205,388,314,392,229,301,280};
const float dwcnn_03_0_MF[64] = {0.00897555,0.01093593,0.00922246,0.00794878,0.00753275,0.01239253,0.01122822,0.00983444,0.00831538,0.01314827,0.01173121,0.00725309,0.01150230,0.00628366,0.01385033,0.00905528,0.01758852,0.01021502,0.00962927,0.01013625,0.00994570,0.00592711,0.00848234,0.01072730,0.00947491,0.01709432,0.00632113,0.00968346,0.00982822,0.01100185,0.00716630,0.00956134,0.01009774,0.01071419,0.01442079,0.01066204,0.01023878,0.00808885,0.00704945,0.00779738,0.01582293,0.01265859,0.00750845,0.00837457,0.00678965,0.01341567,0.01238930,0.00942118,0.01154023,0.00982098,0.00906084,0.00690144,0.00802324,0.00762921,0.00980958,0.01110999,0.01031638,0.00625357,0.01184476,0.00957112,0.01195215,0.00698965,0.00918977,0.00854588};
// Cout,H,W,Cin/Group
const int16_t dwcnn_03_0_weight_size[4] = {64,3,3,1};
const int16_t dwcnn_03_0_stride_size[2] = {1,1};
const int16_t dwcnn_03_0_padding_size[2] = {0,1};
const int16_t dwcnn_03_0_groups = 64;


//=================depth_wise_separable_conv_03.3==================
// Cout
const int32_t dwcnn_03_3_bias[64] = {-531,-2072,-3971,3773,511,1648,517,3105,-2299,4275,-2374,-7969,-3611,-4704,4405,7740,1837,2873,7256,1445,-2640,5531,37,1054,511,5305,5219,6107,3931,-1789,1940,-647,4140,-59,4782,-2118,-709,-2128,-6547,8015,-5379,3683,-1808,7319,-843,3745,4440,5004,-1902,4769,-4085,-9475,958,-5707,-4108,3443,2416,3486,513,-3062,2385,1168,1259,-4590};
// Cout,H,W,Cin/Group
const int8_t dwcnn_03_3_weight[4096] = {2,24,66,9,-12,79,-1,-34,-41,-29,-77,33,-28,-46,-87,-47,45,-27,52,-69,127,19,-43,44,32,11,-41,51,-23,8,-72,12,-12,-43,41,3,26,-76,14,-82,-55,-33,15,-57,-40,58,-15,-45,-41,-69,100,65,32,30,0,10,-21,37,27,-20,65,27,37,-16,53,-3,58,5,73,-73,-61,-6,83,39,-27,-33,27,37,7,59,-36,-7,34,-2,-29,-62,95,-53,-18,26,-128,-35,-1,-51,-23,-2,43,66,50,-76,107,-82,15,-47,21,22,22,17,1,-103,114,86,60,-92,-3,12,68,93,4,-1,-10,-18,-10,66,8,-24,14,-30,1,-7,1,95,-24,98,3,-54,38,5,38,-4,34,-39,14,-26,77,60,-1,55,61,14,28,36,64,-45,-12,-84,41,0,28,39,-103,-35,64,28,70,0,-94,39,-6,33,-36,-66,100,-29,-43,31,70,-6,-58,-2,2,-3,-78,-23,36,-25,27,28,36,8,13,-127,55,-47,1,-40,8,19,-5,50,-66,86,-76,-12,-63,-99,-7,-30,-112,26,62,32,47,33,41,8,-22,28,48,-30,21,27,-42,-8,-5,31,57,-24,-20,-42,-88,1,-5,-44,11,9,-59,-19,-43,16,-15,-17,-14,-31,1,-127,-37,8,-6,-1,55,-6,38,-7,-37,35,-99,65,39,67,12,11,9,-5,-23,-34,9,38,-70,16,47,17,-69,-33,65,54,29,84,63,-62,-45,-128,34,-2,-82,-12,50,-14,-28,63,-101,-66,42,28,-12,-10,-81,40,43,-22,-9,-36,50,-21,-50,23,12,-97,67,-10,73,86,-51,-15,94,4,-1,-45,10,-70,-24,6,-32,38,-45,46,-54,71,6,-56,-39,-12,-89,-52,9,36,-17,-63,55,56,-31,-16,50,27,127,13,40,-76,-15,49,-11,-16,50,34,9,103,-15,-24,5,21,1,9,-61,-93,-36,-8,-103,4,-37,16,74,-72,38,-63,-75,10,-84,34,61,53,-14,-20,-23,20,2,16,-44,-66,-60,10,-9,-41,13,21,69,-49,0,6,-23,20,111,-12,-82,48,30,-20,-21,14,30,-128,2,124,61,-39,3,76,20,9,20,35,16,-50,-63,43,-81,52,38,-75,31,29,-20,20,-52,-10,16,68,28,7,-39,-89,-79,32,94,-81,-31,-89,-6,26,-22,-25,-49,-102,2,-86,15,7,18,5,-8,23,-113,-43,81,30,38,1,-57,24,40,17,-23,-37,23,-93,51,-48,26,59,65,-29,18,-41,-1,54,-19,17,-8,-20,45,36,-30,25,-47,53,-39,-24,9,42,33,-36,-68,-20,10,-94,-80,28,74,-127,0,-15,16,77,36,89,-108,-59,54,-58,-13,-38,86,21,49,-67,-24,14,-30,1,61,-6,88,123,-85,127,58,14,-73,-61,44,-18,-57,13,103,-42,104,-46,38,23,-116,37,35,17,28,67,1,17,-40,63,-91,-37,63,11,4,35,53,8,9,-90,-18,-14,-41,36,-42,-3,-15,27,-58,96,-53,-14,-14,98,-36,-58,-9,11,-18,-31,57,-58,-3,-16,-62,-37,-26,54,-32,-32,-19,-50,63,40,-17,-25,55,7,34,-22,-28,-48,55,0,105,9,25,35,54,-90,22,-18,-83,-9,-81,65,-88,-40,-128,-76,23,-97,-8,30,-84,-15,26,46,-3,-17,-97,74,-22,43,-13,61,-5,-31,-28,5,-43,54,49,-52,-55,31,4,-36,20,5,57,-11,16,4,3,25,-52,-4,-34,40,7,-21,-32,78,52,-42,-1,64,35,-128,-70,68,25,-42,-26,-20,2,18,108,37,-38,25,55,7,31,16,90,-61,30,29,40,18,40,-67,-36,15,-33,66,57,-35,-89,68,-34,29,9,20,-23,37,95,-35,31,-55,89,89,-39,-78,-16,-103,23,10,47,-83,78,-28,-86,66,21,78,96,-49,45,43,5,45,-47,60,6,-36,38,-38,19,127,32,20,15,-15,-74,24,4,73,-9,58,-73,8,-9,43,58,-26,75,56,12,96,-13,-24,-90,127,-39,-41,67,12,-12,7,8,-14,5,-33,-19,-39,-10,52,9,-59,57,-31,-47,-23,18,36,-72,28,86,-32,38,-6,73,20,80,-10,110,29,-16,98,-28,-61,11,-79,69,5,-23,32,-15,-10,7,85,42,4,-29,1,19,51,44,-82,72,-50,-50,40,115,-24,-6,6,4,16,-12,-25,15,38,51,-22,42,-21,104,63,13,-61,67,35,-41,41,-119,87,44,122,-54,108,-36,44,11,26,18,11,3,80,-60,-58,-18,-110,-59,5,24,109,-110,127,-45,-41,67,58,-39,-84,-22,13,62,72,-37,-33,-11,4,-11,8,-13,-88,-21,-127,-27,31,102,81,-21,-71,-53,-60,27,18,-71,-29,-22,54,108,-81,64,-16,25,68,-62,-40,-80,-43,-124,66,-78,-5,22,21,-97,-46,-2,-83,-19,-60,55,71,31,59,6,4,-32,19,-4,-108,17,-41,-42,-3,31,94,-55,-41,57,-85,91,87,-53,-11,85,-128,64,-41,7,-117,39,25,-53,-45,-70,42,100,42,43,3,-19,38,-79,-36,-62,53,54,-79,6,-23,-57,54,36,-17,-49,-21,11,-47,-44,-73,-99,-30,-16,-97,-76,-93,47,7,-35,-44,-59,10,7,-110,45,8,-48,7,11,25,4,-19,-23,-63,8,-6,-27,39,18,-17,-38,-52,86,-23,-10,112,-28,-17,10,55,-110,38,-9,-102,-4,80,-64,-51,-85,19,74,28,-48,77,-59,-78,-53,-20,-106,-63,127,91,-31,-63,-85,14,-58,37,82,12,-1,68,21,18,-41,51,55,-57,-10,-22,16,-104,99,-13,110,-36,106,21,-63,-53,43,-1,-1,1,-14,-26,96,-41,11,14,77,-42,-76,-81,-27,-98,-80,-23,61,58,32,95,57,-12,102,23,118,28,-57,-90,-7,-40,35,10,6,-26,24,20,73,-128,-56,-53,-32,66,6,4,-15,-21,-111,-2,-11,80,33,-30,-32,6,-32,-122,54,-72,57,-52,18,26,-87,1,41,-26,71,-80,41,-67,-15,-47,24,-128,6,-38,74,9,18,0,-12,-90,-31,-15,-68,-7,-35,-24,34,-40,-36,-13,-36,-15,-47,4,34,-62,-49,-19,8,-38,27,-43,-124,11,-60,10,-7,-86,15,4,20,-6,-5,-30,52,16,50,-19,47,3,-57,59,-5,-85,85,-5,55,30,-81,-7,-53,-10,-2,28,-33,-17,-24,75,-18,8,40,-30,44,6,-57,69,27,-91,11,3,67,7,41,-111,-96,-25,127,-38,-3,26,-47,12,41,11,-39,35,-65,46,-60,-3,-7,61,34,123,-71,-66,53,38,-84,-45,-2,-7,-40,-54,49,-75,-68,-60,-23,54,89,-33,9,7,-24,-75,88,-109,58,-3,-6,80,25,18,39,41,113,-24,5,-82,61,-6,2,-54,127,-33,0,3,-86,23,-25,47,119,-23,-86,-12,76,-19,-64,-27,-9,-25,-94,-41,47,-8,-73,1,66,46,36,82,0,-16,-110,13,45,-106,46,-65,15,-26,105,50,127,89,24,-82,-85,-12,60,-32,85,-35,-52,21,-5,-31,0,2,-9,-50,-125,82,-18,52,66,-12,73,-72,-4,-42,22,3,99,-13,114,16,42,-84,-21,2,-75,-2,44,5,-46,-19,-47,-42,11,-54,26,-10,-14,-29,-47,28,28,-18,10,-66,-65,-23,-70,22,-47,16,-25,104,35,127,21,-46,-107,53,-5,37,-59,81,-34,26,-81,-37,-82,12,40,37,-22,43,-50,4,30,-4,84,46,19,-33,-84,-30,-15,4,-66,-49,2,-49,56,-39,-26,61,10,-108,-3,-49,-42,-45,-71,-28,-118,-12,65,83,52,55,10,-25,118,103,-6,33,-76,-11,87,73,13,-51,-68,52,-6,127,101,-126,18,22,10,-79,50,33,-14,44,29,82,-73,-109,-21,-8,-127,-27,79,-96,33,67,21,-60,-114,117,-31,-87,56,-47,-48,61,-20,-26,86,-39,-43,43,-13,55,-18,-67,-72,37,68,40,-108,41,-17,0,36,-61,17,126,-83,55,-9,19,-43,-98,12,-7,2,31,-10,-32,28,14,-25,-24,1,-33,19,-30,40,-6,-76,0,-5,-13,-65,-62,-24,67,18,-4,-1,50,67,46,0,-38,3,7,63,21,-20,-65,-27,0,60,39,-5,34,18,-21,26,-127,66,-10,-51,21,-28,15,41,78,30,41,-51,15,-20,-11,15,10,1,-7,63,-11,60,38,67,9,-73,-75,-24,33,-47,-8,32,30,6,0,-26,-27,127,-55,-21,-40,-3,-15,-12,7,-8,5,-43,-48,20,-47,-8,4,3,68,-31,-40,-94,-61,-35,-57,-68,53,13,7,3,-39,-62,-1,17,30,-21,-39,-16,-14,-117,-70,32,-75,17,-8,-6,-34,13,50,2,-24,50,61,-20,-26,42,61,-64,-107,-49,30,-23,54,-28,9,28,2,27,-24,6,-11,-23,36,-53,12,6,-53,-14,24,-78,56,9,-9,-45,8,31,14,-100,5,-88,-34,22,-15,-16,-73,-128,5,6,45,20,-58,-15,21,-40,14,-43,60,44,-5,34,-70,-8,-51,-65,22,3,16,-63,-24,-2,-11,-53,32,6,7,-87,36,-9,-12,-30,12,-30,-75,52,-102,22,44,-12,81,43,-1,-7,-12,-17,16,2,-40,61,12,-89,-82,-4,-44,-127,-25,50,45,-33,11,-44,23,11,-25,14,-49,-13,-36,34,-52,-4,-57,30,27,-3,-101,10,89,5,-47,4,48,29,109,63,-12,-52,2,0,127,-76,-62,70,-64,62,121,-13,-28,10,48,49,-94,-87,6,-47,-73,46,-108,-40,86,-42,-30,55,1,22,-56,-96,101,-93,-47,-119,-52,-68,-109,-106,-83,64,6,17,-4,-73,40,19,64,-5,-33,26,-13,-54,3,-4,47,-71,127,-25,-7,-56,26,-12,-34,15,21,-1,-26,95,-9,56,47,-33,51,-31,5,-24,105,-33,-32,-16,5,-35,-30,6,-35,-28,3,-22,35,14,23,-47,49,-37,55,3,-1,33,38,9,-8,20,-95,-30,25,-19,43,32,43,-11,3,-60,-46,-17,-89,-76,9,-42,-66,-110,-58,47,93,-66,59,-72,-48,19,-18,-6,-9,-80,-128,54,-84,73,89,116,51,-73,88,-20,18,-7,-93,-14,109,57,2,22,66,2,-34,13,34,-10,57,-33,5,-104,84,-80,15,-18,-119,-17,81,-13,26,112,27,-33,25,116,-4,-9,54,14,0,-75,45,-40,39,72,11,19,14,16,-39,-52,22,30,-25,-1,127,-13,-67,-50,29,-39,-5,92,35,2,-38,72,17,-21,-47,-74,-21,19,4,-22,0,-46,33,18,-91,8,24,30,3,-9,-5,-11,36,69,52,-71,53,-34,0,-47,-31,24,-38,36,24,68,-111,51,-128,56,13,-50,59,-49,114,-96,18,72,-30,-10,31,39,96,-66,-18,34,-56,74,22,27,-115,19,43,-39,65,27,-95,-13,46,14,22,-127,82,-26,74,-90,-96,101,7,-48,-45,-44,25,-67,6,-50,-62,30,-27,3,-6,12,-7,-113,-68,-82,92,-30,-23,-35,41,-2,-65,-71,-38,-49,-22,-33,-9,2,29,-8,49,33,127,29,26,58,19,-11,-47,96,-60,10,-27,-35,48,-22,55,20,34,-58,21,-23,5,39,-44,-42,-32,16,-20,34,-39,-16,-96,-16,78,32,18,-97,12,54,59,-11,18,-21,-60,71,84,-37,40,-9,-49,31,-79,24,7,127,-12,-13,-41,92,57,25,-22,-81,43,62,-1,-28,-69,-39,73,41,-115,-24,103,-37,-91,-13,8,54,48,0,21,-21,-78,24,-9,-52,36,32,32,-14,-19,50,-23,-62,-16,-36,30,-51,23,-114,-1,27,-22,-13,-127,-97,64,-17,0,-96,-114,8,-54,92,-12,96,35,43,-128,-82,77,4,-86,-33,-55,46,30,-10,69,95,0,-84,-23,51,-37,44,48,47,-25,-60,-5,103,23,-9,45,49,6,-44,38,-68,-25,3,83,-81,-78,28,28,70,-1,7,23,-32,-125,-59,-4,-26,-13,-48,-71,-20,0,52,-30,44,36,39,71,-99,127,71,46,49,41,-68,61,-8,-34,83,57,-53,-5,45,43,9,19,-36,32,50,52,18,15,-32,-4,39,49,-25,-16,-44,41,-80,-11,34,-49,26,-39,-4,-56,24,-4,-2,-9,-33,-2,57,-12,-28,-63,-40,40,9,-20,-57,-5,4,-5,-88,-7,-37,-8,-40,51,-24,50,33,-29,0,-1,-3,-31,35,70,41,33,-102,25,-12,-24,90,38,-32,-78,19,-17,-46,-120,48,-60,-2,-3,1,58,53,66,-49,-123,7,122,0,70,24,23,31,-128,-61,-57,23,35,61,-10,36,76,9,109,-24,-35,-48,-14,3,10,-15,-67,-16,40,35,100,-9,21,27,79,105,0,-23,29,44,-89,86,36,67,66,64,-50,-50,-34,21,-14,3,-66,13,-36,6,-20,-56,56,41,-41,0,74,103,95,-13,-100,29,-28,-35,42,-23,29,46,102,57,-92,81,1,-7,77,-13,7,124,-37,-10,27,-128,16,27,67,82,-38,-32,-11,75,-12,-111,65,-59,-6,76,-21,-36,-25,-20,-54,40,-24,54,-25,-37,44,-74,59,51,-94,16,-39,6,-84,7,54,-2,-55,-30,-25,44,-27,118,-96,-72,9,-84,-102,-77,-37,66,9,-61,-127,-94,-55,68,62,47,44,58,0,-122,-21,-15,-21,-83,34,-12,-24,-12,-20,-79,-12,-22,59,-32,-60,29,14,-17,31,34,-57,-33,91,-32,67,22,-23,27,15,68,-9,-121,54,81,2,28,17,-90,24,24,-60,0,-39,44,20,-36,-59,8,36,33,-9,22,12,3,127,86,51,65,-30,-12,-42,13,-2,31,-43,18,30,57,65,0,25,-10,68,53,-16,-4,53,-41,20,38,32,47,-27,17,11,-8,-15,-53,-10,-128,-5,-106,28,-26,82,7,31,19,51,33,-37,-46,-4,44,-45,-56,87,-16,-42,15,66,-68,26,17,25,17,83,-9,-47,-38,-13,-49,5,98,-64,-68,-55,-41,-41,-25,-24,-22,-32,11,-17,-24,37,-54,-59,0,-52,-31,70,52,-5,-71,12,3,25,-63,-20,21,-50,-8,5,27,-49,53,-3,-20,-92,-82,-54,127,-33,-19,-8,88,-92,48,-36,3,120,5,-61,-11,47,22,-26,57,15,17,62,-75,44,-2,-1,-27,21,66,-67,66,22,28,20,-19,27,-36,56,95,79,15,-35,-17,59,11,-52,63,-59,31,1,52,-59,2,6,-51,-6,-100,-34,9,90,-87,-20,78,6,-53,57,-54,-43,-65,9,-48,49,-45,-48,-32,-13,40,27,6,-15,3,29,16,-27,-59,-98,-128,61,12,0,24,-52,10,-91,-94,26,4,-61,-32,4,-16,-12,-9,-84,-37,-25,-31,12,-81,16,27,-37,56,-49,-10,33,44,-15,38,-6,66,-16,-126,2,33,-7,-52,-10,25,57,127,-22,-74,3,35,59,-2,-41,51,9,49,48,-94,25,68,53,16,3,6,24,-59,-47,40,53,-54,-7,13,-64,-22,7,-21,51,-45,-47,-74,1,51,22,56,-80,-20,-65,78,-30,90,127,-107,13,18,10,-8,-17,17,-48,-45,-47,-65,-102,7,3,-14,-9,7,35,2,-14,-53,40,-14,-49,19,111,-18,-13,111,-100,-59,-68,-15,-7,-116,-39,-109,-21,-17,90,-73,-65,72,-6,-91,-48,-50,35,38,17,69,-87,86,43,90,52,58,28,-106,4,-33,18,-12,-77,20,-19,-85,5,-5,30,11,22,-5,48,-56,62,-36,-66,-57,-52,55,-48,-18,-6,-5,-31,54,-25,5,-80,-78,-36,-85,127,-95,-48,3,-81,26,-1,38,-95,-5,15,-14,49,23,77,49,42,34,0,60,-4,12,39,-28,-82,4,-1,46,-88,35,53,29,-37,-25,25,4,-2,14,-12,33,-78,-9,9,-23,-62,-5,-30,15,-93,-62,10,27,-50,-3,-11,47,-44,1,4,-1,-10,15,-128,1,-83,-17,21,-65,-30,-36,26,-5,-23,89,63,-8,-44,-93,37,-6,2,32,71,-42,19,-16,-1,-13,-54,5,17,67,32,-60,-21,121,95,49,79,-46,27,85,-81,-69,-9,32,46,-10,-88,-13,-30,-1,45,-46,3,-5,17,26,-59,-23,-54,42,30,-1,-12,-4,48,39,109,39,-52,127,-34,36,61,26,7,-88,-62,-39,29,-60,8,14,-91,19,-34,-48,44,20,-90,38,-39,46,6,40,98,-64,-41,-3,-7,4,-21,42,-117,47,49,39,-77,85,5,-2,-20,-32,-14,40,7,87,7,0,-10,44,64,-128,32,55,-58,-16,22,-30,-48,-18,-57,67,38,-86,28,-22,66,-55,-30,-74,-6,-21,-54,15,-29,-126,11,-32,22,-102,-3,7,15,-34,-59,-59,-16,72,-48,10,17,43,126,-82,0,-60,42,-74,28,39,-14,-37,1,33,-4,-3,-13,-23,41,41,94,-51,-37,12,-19,-69,59,17,29,59,-45,43,-3,-41,73,5,38,-57,88,-45,-24,-70,-57,-31,-27,127,98,63,-14,-15,14,-3,-18,-23,19,13,73,-44,-36,41,-126,82,94,-17,42,-3,-4,5,-124,3,102,105,-62,-105,2,-7,-80,4,122,17,-105,43,41,41,82,-25,-60,26,52,-30,58,-9,37,91,29,93,-9,-92,27,39,-58,77,-36,96,-21,4,6,39,55,19,127,51,-86,-52,50,-3,99,-68,88,7,-114,21,42,45,88,77,-96,30,-3,-27,37,-14,-20,57,-84,-103,-51,44,40,-61,1,-53,-85,-47,-128,6,4,-8,12,87,7,10,-102,-24,-34,-13,18,65,-34,-17,88,52,20,23,-68,27,93,-36,17,-54,39,40,-110,62,33,-14,28,-59,-40,60,-31,10,67,32,7,-24,89,16,61,3,-46,65,104,-20,29,-14,14,110,85,-51,-8,70,-96,-119,-44,-21,-54,101,-61,57,28,-34,-7,35,5,-51,36,-52,-17,15,-6,5,74,-53,-1,95,11,43,1,3,79,-50,86,47,-75,-31,-58,3,70,82,52,-40,36,127,91,-53,9,11,81,71,16,-41,-80,1,27,19,-48,-44,-12,56,18,-29,-30,-36,5,-67,-37,-27,49,93,49,-4,23,58,-11,-38,-30,1,88,-24,118,-30,-78,-128,24,-87,24,43,-21,22,62,13,31,15,-8,42,-12,25,73,-101,52,67,-45,57,65,-18,-52,33,100,-26,-45,16,-15,48,-22,-38,35,-93,-113,-11,107,-7,-6,71,-82,-106,49,-24,-26,-45,47,55,79,95,-33,8,1,72,-127,1,-87,5,75,-53,50,-120,-80,-9,73,37,-29,-34,-63,-1,18,-43,-122,72,-45,27,-17,-20,1,-78,94,-88,-6,-22,-9,43,-50,10,71,-8,27,33,41,-72,5,39,-79,-27,-53,30,-12,9,-43,19,-48,21,35,-18,-1,-13,4,114,-12,-22,-64,-9,19,-128,-43,1,31,9,13,-20,24,31,-43,74,22,-58,41,37,-23,15,-6,-40,22,-53,-49,4,-37,50,-5,5,3,34,16,-18,15,-5,-1,-18,43,-11,35,-113,-28,41,-27,-51,30,-24,-57,111,-9,11,-35,-70,15,-52,59,-10,-38,-37,10,-66,-21,-41,41,-45,30,48,-3,28,51,21,52,-42,-127,-13,57,-82,-5,-69,-6,-15,80,46,-67,-31,-7,-88,30,-10,-40,5,24,-83,17,85,52,-23,-48,-16,-98,-47,-18,-37,33,41,106,55,-36,-15,-93,-12,25,-3,22,-75,26,32,-57,-106,-76,-58,23,34,8,-92,-22,-30,-4,56,33,33,26,73,-48,-26,45,79,-19,-23,64,-22,80,88,-113,-53,38,-76,-14,55,24,-12,-92,19,-6,8,-9,-127,-48,33,53,-20,-30,94,6,-12,-15,89,-33,75,13,-64,19,33,65,-118,14,65,-37,-6,28,-6,-25,31,48,-14,7,8,-50,-6,-36,41,7,-2,27,26,-4,-45,-6,14,101,31,23,20,16,-13,-8,-42,-4,32,23,127,24,9,-12,100,-71,30,16,-5,-33,-96,85,-16,-9,-21,19,-23,-68,21,13,-63,17,-37,-78,46,18,31,28,20,11,-16,-94,11,20,-76,-31,-48,-4,-82,-16,127,-26,-115,8,-54,73,-9,20,-45,12,2,13,4,-34,6,-11,18,17,32,20,16,26,-72,12,-62,66,-1,9,-15,30,-26,-26,-18,-67,46,-61,36,-4,-10,7,29,44,39,44,25,-88,-89,4,-19,38,40,7,-45,-13,51,-44,-76,2,-33,34,-27,-43,123,11,-88,-7,12,108,-19,-17,20,102,-30,-27,63,-30,-1,0,62,-33,-14,13,38,-59,3,57,3,-34,21,-65,-20,64,-95,34,12,-29,-2,-20,0,127,-39,-19,9,27,-3,-19,-24,-99,-17,-43,21,50,-2,-38,-18,-61,60,50,-38,-10,16,66,33,-60,-43,23,45,5,38,-68,-49,42,44,-16,32,-35,46,-64,2,-35,-55,21,45,-89,-37,-19,20,-21,62,-33,-27,67,-2,-24,12,19,-59,-4,-37,22,7,43,-49,-30,-27,-47,-128,74,-43,4,15,28,-49,8,-18,22,-33,28,65,103,26,-7,-5,60,-3,27,25,-33,-23,28,-114,-16,48,-47,-75,4,33,70,-97,-61,-26,49,2,-89,19,127,38,5,25,51,2,-24,-45,-30,37,57,38,54,12,-2,45,63,14,-37,-10,31,5,-10,46,-29,2,45,-4,-9,-9,41,-38,13,-19,44,64,-11,13,71};
const uint8_t dwcnn_03_3_output_zero_point = 0;
const uint8_t dwcnn_03_3_input_zero_point = 0;
const int16_t dwcnn_03_3_M[64] = {98,118,168,178,109,160,164,147,103,162,122,92,108,119,90,80,109,141,168,109,107,80,130,93,149,166,169,132,84,158,107,126,118,172,128,100,179,119,124,123,170,97,129,129,117,148,152,141,143,132,94,132,126,128,114,102,184,143,133,122,161,140,121,160};
const float dwcnn_03_3_MF[64] = {0.00297882,0.00361075,0.00511883,0.00542153,0.00333761,0.00487050,0.00500558,0.00449376,0.00315662,0.00494940,0.00371093,0.00279615,0.00328253,0.00364362,0.00274787,0.00243381,0.00332106,0.00430409,0.00512949,0.00332348,0.00326776,0.00242872,0.00397456,0.00282738,0.00456194,0.00507290,0.00516883,0.00403140,0.00256033,0.00483475,0.00326675,0.00383446,0.00360844,0.00525334,0.00391499,0.00304227,0.00546479,0.00363618,0.00379847,0.00374612,0.00520140,0.00295274,0.00394134,0.00394603,0.00358457,0.00452991,0.00463095,0.00429100,0.00435683,0.00404223,0.00286484,0.00403742,0.00384603,0.00390580,0.00347331,0.00311713,0.00562093,0.00437128,0.00406905,0.00373812,0.00490536,0.00426193,0.00370232,0.00488414};
// Cout,H,W,Cin/Group
const int16_t dwcnn_03_3_weight_size[4] = {64,1,1,64};
const int16_t dwcnn_03_3_stride_size[2] = {1,1};
const int16_t dwcnn_03_3_padding_size[2] = {0,0};
const int16_t dwcnn_03_3_groups = 1;


//=================depth_wise_separable_conv_04.0==================
// Cout
const int32_t dwcnn_04_0_bias[64] = {-740,1606,-2916,129,-665,-579,-3415,3553,2534,-2083,1483,3675,3263,4256,-593,430,321,-556,-2166,1215,-466,1568,-1316,-1238,2267,1110,-335,2305,772,-40,-3730,1392,-800,-1182,135,-1906,3479,1980,544,-1438,967,2149,-1129,-774,4800,256,-773,1841,-1089,608,-567,-3736,-578,1796,-511,-1925,348,-1193,-302,-1477,-2412,-1521,467,4833};
// Cout,H,W,Cin/Group
const int8_t dwcnn_04_0_weight[576] = {46,1,82,-68,12,127,10,-26,80,21,-3,-127,-128,88,55,-57,-23,-51,38,48,89,13,119,88,29,127,-71,127,-89,-95,38,-37,84,-58,74,13,-84,38,127,51,-97,126,31,-64,29,-24,76,-118,-118,42,99,-10,24,127,79,71,31,127,36,56,41,-84,73,-89,56,-24,-83,-2,-128,-56,-58,-23,-2,48,-63,-18,-66,-111,-128,111,1,30,-25,73,-51,61,15,127,-69,58,-128,-114,-25,63,32,-98,120,-76,-46,43,-110,-66,-15,-122,-127,-57,-35,-68,-128,9,-84,-108,56,-45,24,-8,77,-51,61,4,-97,-45,-89,-39,-14,-127,3,15,32,123,-12,83,127,-48,118,-6,-22,46,127,-76,39,126,-89,-72,-46,-127,26,85,30,65,-73,-84,-49,-58,-36,-128,48,76,7,96,64,-5,107,-26,-8,111,-30,11,127,-68,23,78,-128,-41,-22,108,-104,-52,114,-44,46,63,33,-2,127,-41,-81,42,-6,61,-86,111,-128,69,-112,-69,123,-89,70,-60,9,127,105,-122,60,89,-96,-62,-8,-7,127,98,-6,-36,68,67,15,-49,-90,-127,-89,-55,-45,56,59,-128,-69,43,-31,25,-60,22,36,-108,127,4,-28,14,53,85,-53,-49,-46,24,-128,52,-53,-42,12,-39,-35,-17,-87,-100,-88,84,44,25,98,2,-128,-95,-37,31,127,31,-62,111,66,-58,127,24,34,17,58,81,89,25,54,-93,73,-83,-18,-1,-7,127,-125,-20,66,-51,32,127,1,-31,11,-68,12,-27,73,95,-11,127,101,-67,116,-30,81,-73,-57,-93,69,-37,-99,127,34,96,13,1,117,57,64,62,70,127,-42,113,80,-70,-87,-89,-128,-60,-110,-128,118,81,-100,32,21,-71,-66,-42,-7,100,-106,-124,-128,102,25,4,27,49,-90,20,72,81,127,-88,55,4,10,31,-57,46,-35,36,-30,-81,-128,12,-23,-53,-2,-128,-89,44,-30,-47,-63,-85,122,-60,-52,127,-51,25,106,-112,44,109,-66,16,127,-85,14,15,17,20,-48,-103,-104,-101,-104,-127,-58,74,-115,32,91,-27,59,-4,59,-128,-41,62,40,-54,-49,-117,127,96,32,-59,70,-67,-128,-7,67,-118,-22,41,70,39,-52,60,-72,54,65,-37,-128,-128,13,48,77,40,-55,-93,-35,62,54,112,-46,-39,127,48,-54,63,17,32,37,104,127,27,-8,49,41,76,92,1,-128,90,-62,-93,101,64,70,-74,32,39,-128,0,-91,-45,86,-11,82,6,-61,-48,-66,82,127,54,-112,-57,58,-79,105,68,-54,101,127,25,-92,-85,37,69,54,22,13,-57,-128,57,89,-16,-9,92,-128,115,91,-44,-128,49,97,-82,-38,116,1,-34,79,127,-30,-14,113,41,-73,111,17,43,12,-53,57,127,-37,56,102,8,34,50,58,10,127,-9,-49,109,-81,-41,-128,95,-62,23,-34,34,37,-99,98,-113,-27,-128,-88,-16,-114,-94,-47,-124};
const uint8_t dwcnn_04_0_output_zero_point = 0;
const uint8_t dwcnn_04_0_input_zero_point = 0;
const int16_t dwcnn_04_0_M[64] = {289,162,131,193,138,134,139,149,147,134,136,156,154,143,286,354,188,141,156,177,254,157,99,177,141,216,210,188,167,242,113,191,215,134,195,197,98,107,123,206,167,297,68,135,170,152,129,151,106,158,332,96,94,116,225,154,180,140,119,113,154,142,173,112};
const float dwcnn_04_0_MF[64] = {0.00883185,0.00494011,0.00400262,0.00589075,0.00420361,0.00410037,0.00425557,0.00455200,0.00449066,0.00408721,0.00415001,0.00476757,0.00468862,0.00437762,0.00872007,0.01080240,0.00572683,0.00429301,0.00474779,0.00539123,0.00774544,0.00479570,0.00301619,0.00540482,0.00429705,0.00659017,0.00641334,0.00573019,0.00508144,0.00739846,0.00345556,0.00581932,0.00655455,0.00410107,0.00596155,0.00600862,0.00298283,0.00325369,0.00374385,0.00627970,0.00509344,0.00905071,0.00208420,0.00413228,0.00519479,0.00465103,0.00393273,0.00461487,0.00323894,0.00482303,0.01014372,0.00293435,0.00287404,0.00354742,0.00686148,0.00469939,0.00549235,0.00426479,0.00363522,0.00345185,0.00470822,0.00432540,0.00529398,0.00342174};
// Cout,H,W,Cin/Group
const int16_t dwcnn_04_0_weight_size[4] = {64,3,3,1};
const int16_t dwcnn_04_0_stride_size[2] = {2,2};
const int16_t dwcnn_04_0_padding_size[2] = {1,2};
const int16_t dwcnn_04_0_groups = 64;


//=================depth_wise_separable_conv_04.3==================
// Cout
const int32_t dwcnn_04_3_bias[64] = {4839,1030,-3717,2298,387,743,907,3711,-1342,1284,-633,-326,-959,-1502,-2175,-445,-802,3614,1938,3065,-1447,719,3078,164,4313,993,3956,-4000,2315,1583,2436,598,-172,1487,1827,-203,621,4645,2535,95,-1686,2289,-422,1446,-2418,2960,858,-230,3417,2239,121,1228,858,1870,-2272,1533,-582,293,-568,2283,-1513,3040,-106,3397};
// Cout,H,W,Cin/Group
const int8_t dwcnn_04_3_weight[4096] = {-46,12,127,-67,-41,-97,-106,-45,-12,70,-86,-122,-79,28,-10,29,-43,15,-126,34,-13,-98,-97,27,78,-10,-15,16,-80,56,-30,-84,77,-29,-88,-101,-59,-40,-32,-58,-25,-14,56,63,79,-124,-56,36,-57,-45,-58,-84,-1,61,-37,-63,112,70,62,-13,41,28,43,-6,-57,32,11,16,-4,-28,-54,-26,11,47,-23,32,-24,-14,-16,-55,-26,-38,49,20,53,-38,16,20,-48,-100,-5,47,-4,22,-54,-128,13,23,2,-36,4,25,-8,-10,-17,-1,-20,57,124,-84,-29,-34,50,58,-51,24,-13,42,20,-19,27,-17,3,8,-81,77,-56,44,26,-26,-16,13,30,39,-99,64,88,-34,16,-20,13,73,80,3,-52,108,54,-38,-22,19,49,-12,-21,127,10,-43,20,43,11,-36,24,-10,40,-13,0,-18,-115,103,-32,14,25,33,-44,-10,51,51,50,7,-72,10,91,40,-27,-32,68,43,-38,-7,43,-81,-12,13,-5,-12,-80,-42,5,90,-74,36,18,-63,-114,-22,-81,21,87,32,-37,40,19,-11,-24,3,43,-52,-9,-43,-127,30,-17,36,-33,-36,-36,-52,91,-20,55,21,-46,-61,7,-12,-46,-27,59,14,24,8,-21,-54,40,8,0,-38,-47,-28,-10,52,14,-70,58,-42,35,64,-127,-69,15,5,22,42,-72,-21,7,-1,41,18,35,25,-18,63,-12,-36,75,-77,-58,16,-49,-61,16,-30,27,0,52,-61,51,-10,-24,40,-9,-29,36,-50,7,-1,-58,-44,62,19,96,32,-52,-21,-6,-15,-1,-85,38,17,28,-36,-28,-30,-40,-18,-36,25,21,-4,33,-2,67,-127,56,52,4,-16,4,-124,56,-64,41,-12,-17,124,-10,26,-18,69,-12,-47,-22,22,3,51,-76,56,-54,-63,-20,25,25,16,-79,36,-102,-25,-44,3,91,-2,-7,20,38,14,1,-8,-85,7,-14,-29,-16,-19,-35,-92,69,-1,38,-41,60,-50,-55,45,3,15,-34,-44,-12,127,-36,-7,57,-8,-33,17,-69,-16,-15,32,1,-65,87,4,-39,-6,-7,-109,9,21,-75,23,31,-16,37,-96,-76,-52,-38,-21,30,13,-9,-25,-9,12,25,-24,-63,-47,23,-11,25,-12,47,-59,64,-5,-7,42,-54,20,38,23,61,-41,-10,19,-71,20,-5,-29,10,3,25,43,19,61,-105,12,-5,-29,-128,-55,37,1,-18,-41,-124,-32,13,-41,-28,-6,-81,57,74,-36,-30,-98,13,-28,-12,-10,-30,21,-6,-81,37,-1,-13,-58,43,33,-34,-62,24,49,9,-36,-102,-1,-32,-26,-47,-22,65,-48,-52,56,0,7,-55,16,-8,6,50,41,51,-51,13,19,-128,-20,-10,-6,53,19,24,-1,16,18,1,-50,-49,45,-6,46,38,48,49,3,-19,9,-22,22,3,-8,-41,3,78,-33,4,32,-57,-4,0,56,33,-22,52,-33,-31,27,22,-2,17,5,-3,-1,5,3,-3,78,12,-9,62,-36,19,12,-14,52,-122,-116,20,36,3,-127,73,-24,3,89,-48,-52,-36,-77,-21,-15,-10,-62,30,63,-4,34,25,-46,-57,-35,3,-49,-20,12,12,-112,-2,-38,5,53,-53,-28,93,3,-53,-17,6,79,115,18,65,-16,-78,-84,-51,46,35,-72,53,-36,-55,-28,-35,68,-41,14,-8,17,25,-103,14,-57,10,22,110,-11,30,-66,-28,4,-86,28,16,-50,19,75,28,49,-1,-60,1,-29,127,12,-1,0,-37,49,18,-52,-37,28,12,65,94,-70,-66,55,-56,0,29,41,37,-9,18,23,-60,17,82,-9,54,17,-45,-85,-39,-36,70,-47,-6,119,89,-20,-32,28,67,98,-46,-63,-20,27,42,-92,-53,-82,-23,25,81,36,-5,-16,-69,-39,-47,127,68,-1,7,-120,56,52,2,56,41,15,-77,18,114,1,-11,33,-75,-9,85,-61,23,-6,8,-88,-6,-4,-4,74,-52,-34,-14,30,13,-29,21,-52,22,-8,-56,-32,43,80,-41,-4,-20,-38,-40,-82,-75,54,127,0,46,28,25,-40,-63,20,62,-40,3,-15,-46,47,-18,57,28,-74,-73,-84,38,6,44,19,-16,-4,-14,-89,6,-7,108,54,46,-47,-23,-21,12,39,9,-30,-62,-82,-31,66,58,-54,60,-30,46,75,107,-1,-10,-123,33,53,-26,20,62,-26,-93,7,-39,-9,9,127,-28,-14,57,6,-23,65,30,4,15,25,-32,40,-60,115,-7,-64,57,-4,66,-56,-25,37,12,58,68,39,12,-74,-3,-2,-52,8,5,-27,16,-27,16,-27,30,56,-48,8,-15,20,39,-63,-49,-39,101,58,-43,-42,-1,-6,-17,7,37,31,-14,-35,-5,-77,-25,26,7,-95,-8,20,-30,22,32,6,-14,-23,-33,3,-18,25,80,-26,21,127,-53,-13,-7,-7,55,46,18,81,34,38,-38,-24,10,10,21,1,3,40,33,7,65,62,-36,-28,60,36,5,25,-8,-45,16,22,-51,-44,-23,-2,-27,4,-9,13,27,-110,54,-27,-22,62,2,-31,12,-24,-22,41,33,-36,13,86,-42,-35,30,10,57,-50,6,12,1,-26,-36,18,31,-57,11,82,127,-94,-40,-28,-15,1,-19,-29,-21,9,0,66,-10,5,31,0,76,-6,4,-25,5,22,-8,42,0,-9,-16,17,-9,25,15,31,4,-39,7,-44,-13,-127,43,2,26,-8,47,29,-13,58,-21,1,-15,24,63,34,19,-76,27,57,20,-42,7,30,-29,-49,42,54,5,10,-80,-28,-25,-76,-10,54,1,-3,-26,-8,25,58,-13,-33,32,6,-20,30,-12,-14,19,-13,-16,29,4,-128,-24,1,-22,19,33,-17,16,-62,-67,-58,-16,10,-78,-87,-14,69,26,5,-29,38,0,2,-12,-37,26,69,-16,5,34,-24,8,-23,15,-39,36,87,41,20,-26,-3,-11,32,-35,-20,64,-71,-46,-65,-36,24,-47,-67,13,24,-101,19,49,-103,-128,-52,62,-11,-6,62,-19,-39,58,-36,-15,4,15,4,9,-18,20,-10,33,-76,-15,66,2,-61,-50,35,-38,1,7,2,4,-72,37,-54,45,-11,81,10,-37,-35,-30,-70,33,-100,54,41,-63,-26,-70,9,47,-23,15,-16,-46,-102,-88,47,-13,-72,17,-34,12,-69,-117,-6,25,-60,27,-18,11,-27,22,1,-26,-4,2,-3,-51,45,5,39,-13,-47,-23,-43,8,-31,-64,53,-42,18,34,-60,8,-52,88,-24,-6,24,-6,-73,-28,-52,52,-76,14,-41,66,19,-23,-127,-39,-16,28,-79,-27,-15,11,-52,7,40,-39,-56,14,-9,-10,-70,-31,-39,26,49,12,7,69,36,-88,-37,19,3,-36,71,54,64,-11,25,16,114,28,26,13,34,-43,-47,-14,48,-63,-4,-34,18,49,10,-27,-13,-37,3,48,15,-6,-28,-18,-55,4,18,10,-50,34,-25,-69,-9,-127,10,-28,8,85,49,38,-62,3,68,33,-5,-43,63,38,35,27,-58,34,-56,-26,-36,6,-94,127,-66,-30,-9,19,-25,-18,36,-57,-58,-43,22,34,56,-84,-29,-15,-11,108,79,-44,7,-2,43,12,9,11,-25,-101,0,64,-38,-77,93,38,24,38,35,-48,8,18,-9,0,16,-6,-13,-23,29,-6,-18,-23,73,-45,18,-2,-35,-52,31,-27,74,76,-72,67,0,-89,-14,-45,30,-26,-128,2,-3,-93,94,75,-38,-17,53,-84,-77,51,55,-115,64,44,-74,-40,-46,84,-70,-61,-92,68,-66,-39,-60,119,-2,37,-5,-22,30,32,-23,14,-68,-21,17,-70,60,-33,-32,93,-95,-16,-61,-4,41,-17,14,24,-10,3,-127,0,-16,-14,-67,91,-41,-11,-22,57,-46,-36,-23,-20,20,-11,20,-43,5,4,-4,2,26,51,29,-16,34,14,8,-1,-2,41,-17,34,16,60,-12,8,26,-53,51,12,-52,-14,27,5,-14,-6,-22,6,-5,-28,13,8,-32,-10,27,58,-66,-19,-28,-14,75,-25,-5,36,-33,4,19,-73,-51,46,51,-69,20,43,32,29,86,-1,7,-11,-66,-8,12,-43,-4,-63,-9,-83,-101,108,-40,10,-45,-47,23,-3,-19,-99,-110,38,-5,-4,-10,-27,-123,55,22,52,-127,-37,-29,39,6,-36,-34,-45,73,-10,-21,-72,62,-53,-49,-40,-9,2,-14,-7,25,37,-127,10,-47,23,11,54,27,11,-6,26,-3,36,7,6,33,-27,24,-52,-69,36,51,-71,-40,-51,-7,20,29,11,-25,-6,95,-14,-14,-58,-37,19,-56,17,27,-56,-25,-120,-19,-37,49,31,7,-3,-25,-31,46,0,66,-38,-42,-67,-42,46,-50,29,-1,87,13,-32,30,-83,9,61,-67,28,-8,-9,16,-91,24,38,-16,-19,-48,-84,90,-5,3,-59,-122,-50,-25,11,-52,-1,-4,-62,-80,-35,22,33,-37,71,36,-23,-128,6,-26,-104,13,-50,-2,-67,-58,37,-3,21,-32,-45,59,5,23,-98,29,-77,-79,35,75,-12,98,-39,-36,-28,88,-98,119,-16,61,-52,-35,37,-47,-18,8,98,17,-68,-1,-128,1,39,-58,37,4,32,77,-28,-95,65,15,-23,102,-8,45,24,-33,73,5,33,-5,14,-3,-53,-71,2,-32,-47,-12,-17,9,70,-36,-2,-20,59,18,-42,-35,-2,13,1,26,11,0,-3,15,26,29,-16,0,-60,-53,3,-22,22,-8,-27,-7,-50,15,-9,-2,-20,-9,2,-38,-45,-33,9,-20,12,-44,5,-48,41,5,-53,-20,-16,6,61,-20,-57,-82,2,-3,7,4,-76,6,-38,-22,-41,-14,11,2,-40,127,-37,11,77,5,-2,-1,-54,-33,12,-7,-3,-14,18,-95,63,-128,-21,33,-17,7,46,52,73,-4,-25,3,19,21,24,34,-37,-25,-28,-23,29,-87,-12,2,-1,38,-37,-19,75,111,54,-31,-52,-83,-28,-23,-11,-28,0,-2,-39,16,0,18,-57,-84,5,-39,-78,28,25,-5,-34,-76,-53,24,-49,-17,-36,127,52,-7,-52,61,-18,-33,-18,-5,-34,48,0,12,12,56,33,-19,60,-110,15,-28,6,-25,14,-35,-36,-34,17,-31,-49,-14,-1,-64,5,-50,-36,65,46,-58,3,5,-62,60,-15,-8,-41,77,3,-4,-59,39,-10,-14,55,-4,-32,-63,11,5,34,-29,-44,-97,106,26,-77,-30,-27,-95,-5,-90,-35,17,28,-20,-85,31,104,59,50,29,-27,1,-19,73,12,53,11,-37,97,95,-78,-12,0,80,54,16,48,55,24,-12,6,-117,-42,-24,-55,-31,1,33,-66,33,101,112,4,59,-35,-32,51,-21,-19,-128,-109,8,41,14,-50,-41,8,18,-81,-10,-23,-92,14,-66,-5,7,46,35,-103,13,81,24,-12,13,57,-8,-57,36,47,-5,16,-22,108,-14,-92,-50,-37,73,3,-22,-15,98,30,-34,39,-79,-36,-66,-104,-35,18,31,-42,34,-14,-3,20,75,37,-127,66,29,25,-75,42,14,-34,-27,46,34,-64,49,29,29,6,-59,-63,-127,-31,8,12,-23,2,6,-25,33,-54,-46,-27,1,16,87,41,22,-25,-33,-2,42,3,-36,6,-14,14,-53,50,97,-53,-42,-76,27,18,-14,22,-6,51,4,24,-13,57,57,-63,-12,19,2,10,3,-15,-71,72,-23,-36,-42,-71,33,-46,96,57,13,8,-39,-35,-128,-42,1,-26,-99,61,12,-8,46,34,4,40,-1,4,25,-39,28,-31,-51,-27,-36,26,-28,-23,6,-29,-36,42,52,-40,9,-42,-24,-21,-67,-28,43,3,4,-25,29,53,48,-8,-5,-21,0,14,-22,-78,-47,61,-74,-71,4,13,23,-3,39,34,22,-13,-1,-16,-51,34,-114,-48,-123,1,26,11,56,-6,1,-5,-24,-55,82,-32,53,37,-60,-28,-66,95,8,64,54,43,-15,11,-19,15,2,65,-7,29,8,-41,-58,-1,-22,-60,-10,-33,29,-51,23,-49,10,-14,-27,-32,-128,-128,16,-3,8,15,-56,-15,45,-19,-13,3,-60,58,-65,-32,33,68,-30,-99,25,68,-16,85,15,4,58,-36,38,43,44,-23,-17,75,-35,-7,-73,-87,-35,30,-29,-79,102,-57,10,-24,-24,-123,-44,10,-22,-12,31,-52,47,-15,34,16,-6,-11,-22,91,12,11,35,-100,-45,34,-31,-86,12,24,88,14,49,81,95,66,-20,-14,-15,20,-56,-84,-78,-5,33,-26,-68,23,0,-7,-128,60,-60,-89,-4,14,16,11,-46,-38,-53,38,22,-32,-48,-48,65,-25,-20,-32,46,-27,-24,34,-82,-8,-3,-23,-17,-54,-27,9,22,-66,19,-1,-120,127,55,-42,-92,-6,-23,-21,-20,-6,-39,5,-127,-9,-80,30,46,-41,-17,8,28,50,-18,34,11,76,26,-24,43,-65,-12,-27,-7,-23,-85,40,23,1,51,36,-24,-11,29,68,-58,-70,-33,36,-24,-46,-47,-17,-2,-47,-2,-33,-8,-10,-82,55,-70,-82,60,71,70,72,33,-64,-37,11,68,16,41,-50,-44,-1,-27,-19,5,-26,68,20,-24,42,64,-31,-1,-67,19,66,-29,-81,12,-28,-29,10,-97,14,7,-60,-49,-44,54,-9,46,33,90,37,-36,-36,-57,30,-55,25,-44,-19,0,-25,2,-56,15,49,-13,62,-128,-31,-65,-5,82,-24,-15,-18,-71,53,94,-88,9,-3,-33,-87,-6,-88,8,82,31,-44,-20,16,-26,16,41,13,10,-9,-2,-32,38,90,66,-7,-26,-13,21,51,-36,28,-32,65,4,-31,15,12,-15,36,26,23,-45,-14,-33,13,3,38,-13,-46,-37,-3,56,42,34,127,-32,41,-7,-21,-11,-46,-29,60,58,-13,-41,47,56,-24,25,15,20,-47,49,-32,4,58,-58,-91,-13,29,-97,-21,50,-84,69,49,-128,-20,-93,-54,-42,-2,-3,32,-46,-57,-17,16,27,9,-47,-27,16,-21,-39,15,-51,24,-38,-18,-17,-40,14,-33,-3,2,-61,17,33,15,22,-40,79,-30,33,43,-56,17,-35,12,-2,-12,-60,49,14,-34,-36,31,-59,-42,-32,-40,7,23,-32,24,80,-14,27,-24,-4,57,46,12,-16,9,13,-10,45,-20,-29,-11,51,127,-36,-85,20,35,9,25,-6,-19,7,15,28,-12,-19,-26,-21,44,26,-2,-23,54,-26,-56,36,-26,-30,56,-6,-30,-57,-82,18,-40,4,22,-6,-11,5,40,-42,17,33,19,-25,70,-25,-14,38,-42,-8,-58,16,9,16,39,38,38,18,21,-67,25,-64,5,-9,-128,39,-3,-5,20,36,24,52,-36,9,6,63,20,23,0,4,-83,22,8,8,-21,-10,56,9,40,-80,24,-3,36,109,58,-9,8,-4,9,61,-60,-28,-7,-17,16,-91,-29,-21,-14,-13,-31,6,-55,14,-73,-16,1,-42,59,33,-16,-82,-29,-69,2,76,22,12,33,-30,-27,-12,-15,-13,36,-56,9,15,38,54,32,-36,-49,12,72,4,-18,-128,54,47,-44,-32,-36,-38,-89,30,-39,59,-15,13,-33,124,23,90,-77,11,-38,23,30,-2,20,-17,-57,-47,23,-60,45,-47,-2,0,-66,39,-69,-72,33,-3,51,-63,-5,44,19,-127,-95,3,-3,38,-23,23,-24,63,-39,-31,-53,-28,-16,-15,55,-46,-93,-19,-57,33,-41,2,9,-22,113,-51,-63,-13,10,-3,-5,30,-1,-48,-78,-2,4,-32,23,-35,66,-31,22,-3,-16,-10,-9,23,43,37,48,26,-17,-62,22,-4,9,-65,33,44,-41,61,13,26,9,16,-39,-45,-39,29,-101,-44,11,-77,-6,-14,59,-4,28,50,-19,-62,78,-128,39,-17,45,62,76,-109,-56,55,43,-34,60,-105,4,-16,5,-4,-35,109,40,7,63,48,29,-38,-4,-12,-3,55,43,11,16,-89,42,-28,94,-92,-31,56,-7,26,-128,-61,34,-29,68,-22,-80,24,-66,12,-13,37,49,19,-3,6,-59,-102,-21,2,-11,-65,-84,-33,14,-90,42,-22,93,-74,-39,-106,-14,44,-20,7,72,11,48,-1,25,38,18,77,27,-32,66,-3,-77,-50,8,12,47,-128,-38,-51,-64,58,-52,-35,-106,10,-52,-21,7,30,3,14,51,4,-3,-59,29,50,-108,-42,-74,-61,10,-39,39,-36,-85,-28,-91,-63,-14,16,-52,29,-23,30,-39,-3,-28,-20,-13,-18,2,15,3,-89,127,-13,-13,-13,1,-46,-22,29,-11,15,-31,9,33,47,-8,-42,20,-11,10,4,-2,-2,-13,-11,-36,-22,7,-31,-47,60,-16,-77,-24,-32,-23,-39,-19,-9,-19,21,-23,15,6,1,-26,-1,33,-18,-19,-2,39,6,28,54,61,-33,-73,-60,96,0,-29,30,3,-117,121,-71,-60,54,41,11,5,81,57,-91,-47,-14,-11,26,-5,37,-14,-39,14,15,40,-36,-19,26,-10,54,5,12,-49,76,20,10,-64,-94,-69,-23,19,-1,-81,3,-128,37,-39,6,33,-71,12,-78,-84,19,34,47,35,10,-7,-18,17,127,63,33,0,-21,-110,-49,-121,10,-10,90,-14,-77,51,41,0,-72,27,-2,16,-96,-82,78,-28,-52,-15,-114,11,-24,-48,-30,-22,19,60,-22,-13,50,7,-120,-36,-66,101,10,8,26,23,-37,6,18,41,68,5,-27,55,49,82,7,-12,39,-38,5,61,50,-71,41,-2,-26,16,-3,30,43,-64,-74,1,-64,39,-26,40,-57,9,79,-31,-33,-7,-29,-14,0,-3,109,-56,-69,-36,-10,17,-128,-48,-50,52,-2,12,-5,14,-42,-24,16,-2,-1,-9,-3,82,-83,-28,-17,41,28,25,39,1,16,64,-87,-5,-66,108,-21,-100,57,-3,25,20,-27,-13,-29,-87,-77,18,-120,94,-18,-72,8,6,-46,50,44,16,-82,-27,-58,-64,65,18,99,25,-46,-39,-99,29,-50,104,0,-72,-28,-54,39,127,-88,64,85,17,-87,6,-95,53,-11,-14,-85,-49,-55,12,21,64,-62,-85,-77,71,125,-32,-46,-77,53,11,47,-10,24,3,-23,-20,-15,-57,39,67,8,30,45,-19,30,-13,26,-25,12,-25,-18,-52,24,-10,39,32,-47,-50,-41,50,-36,115,99,-11,-16,-48,11,19,17,62,-49,58,-52,-42,4,-81,31,-14,-2,0,-73,31,-12,68,-74,-22,31,127,49,-17,31,-33,18,-6,-13,-25,-18,5,8,-80,-79,127,-78,19,-26,35,-87,-15,-21,4,-48,-53,-1,-12,60,-9,-21,21,7,67,45,34,47,15,1,-10,-116,82,-7,-33,72,-61,-7,5,9,-37,-22,36,-29,36,5,-6,72,48,50,-5,13,-29,-32,21,-14,-25,-34,-43,-20,10,-9,-27,20,-12,80,-29,39,58,43,3,-27,61,-69,35,-29,72,-80,-42,71,-2,-50,24,21,-42,-40,-3,13,-4,-67,-56,25,73,-36,57,-24,-7,-9,27,-37,15,69,-81,-9,-48,43,2,42,127,-22,-5,8,67,45,-45,35,-41,35,47,-13,50,-110,68,65,2,-104,17,95,22,84,-78,-54,-31,-68,60,53,-64,89,30,-63,27,26,-15,-8,-36,-37,12,24,-128,80,-94,-63,9,-69,50,-35,-67,-91,-27,-3,-26,112,69,87,69,31,-78,-43,5,-74,4,-47,-26,-9,-21,22,-74,-36,62,-51,68,-123,-37,-96,22,54,30,32,-10,79,-72,-18,-33,29,22,-36,46,-27,30,3,-6,-45,55,-47,-126,-32,3,22,42,1,77,-58,-69,20,70,-15,-66,-61,99,-41,-19,30,-73,13,-36,9,-23,37,10,-35,127,-2,1,-19,-44,-2,48,16,-70,-62,5,-34,-16,58,-1,-69,65,15,-8,51,56,-13,5,12,-4,-19,82,7,-2,-28,27,3,-44,9,36,-45,9,-9,-4,54,-40,0,-33,-8,-41,-36,26,72,-58,23,-22,-3,0,-30,18,-19,64,25,-11,0,-40,3,11,-60,-27,-32,14,-39,-37,-59,-26,34,-127,-86,36,-20,-13,-24,68,-50,-91,28,61,-24,0,-86,-41,50,27,-8,-34,14,26,-32,-31,52,-15,-29,-5,-30,47,-42,-1,-24,-57,83,14,-41,-69,35,-39,12,7,90,58,-15,-35,-75,37,-61,88,-11,-32,-71,-11,-44,26,-76,127,64,-11,-19,-6,1,14,8,55,-15,-22,7,37,32,-8,-43,-29,-41,48,17,-60,82,47,-17,-72,-79,15,-102,9,56,-52,-124,22,-30,-9,61,5,23,-34,-113,-74,105,38,-79,-10,127,-51,21,8,76,-47,57,-68,21,-23,-112,16,85,4,8,-5,51,57,-41,-100,-65,75,-44,28,19,-88,-25,-33,17,-52,20,-5,26,88,-5,-49,-77,90,76,-2,5,0,-4,68,-27,48,5,-18,26,-14,105,-20,4,15,-27,46,-14,-63,-4,-1,-6,-20,22,25,29,-4,48,-84,-4,-74,-77,0,25,12,-83,-53,5,38,-69,78,-94,-80,127,25,26,-29,56,-36,20,0,-30,11,-25,16,-3,-38,-1,-5,-75,67,39,10,29,28,60,9,43,-61,-40,61,-13,-33,5,-29,-80,39,-107,-36,-9,19,14,13,35,84,-24,-45,32,-55,10,50,-6,-17,39,-38,-34,0,-23,-24,9,-17,52,19,50,-34,82,22,3,-42,-82,-42,-20,8,-102,-65,13,-79,35,-29,36,-14,-77,-50,-62,-128,23,-28,12};
const uint8_t dwcnn_04_3_output_zero_point = 0;
const uint8_t dwcnn_04_3_input_zero_point = 0;
const int16_t dwcnn_04_3_M[64] = {107,195,253,146,155,159,111,111,203,106,191,162,102,147,131,126,153,144,106,110,213,170,116,249,117,112,112,87,177,122,149,116,87,216,125,107,181,119,118,82,173,132,166,157,91,134,144,87,184,315,91,129,124,103,111,174,183,64,146,213,107,117,218,145};
const float dwcnn_04_3_MF[64] = {0.00326110,0.00595768,0.00771625,0.00444219,0.00473951,0.00485306,0.00338681,0.00339424,0.00619417,0.00324604,0.00582834,0.00493830,0.00310559,0.00447540,0.00401232,0.00383402,0.00466482,0.00440260,0.00322622,0.00335354,0.00650565,0.00518626,0.00355000,0.00760556,0.00358485,0.00341717,0.00341721,0.00264626,0.00540066,0.00371589,0.00454176,0.00353953,0.00265671,0.00658607,0.00380923,0.00325471,0.00551623,0.00364182,0.00359730,0.00251673,0.00528536,0.00402656,0.00505166,0.00479833,0.00276494,0.00408298,0.00439480,0.00265936,0.00560287,0.00962343,0.00277040,0.00392272,0.00377501,0.00314641,0.00339467,0.00530256,0.00558627,0.00194988,0.00447011,0.00650311,0.00327937,0.00357965,0.00663777,0.00442973};
// Cout,H,W,Cin/Group
const int16_t dwcnn_04_3_weight_size[4] = {64,1,1,64};
const int16_t dwcnn_04_3_stride_size[2] = {1,1};
const int16_t dwcnn_04_3_padding_size[2] = {0,0};
const int16_t dwcnn_04_3_groups = 1;


//=================depth_wise_separable_conv_05.0==================
// Cout
const int32_t dwcnn_05_0_bias[64] = {-803,-3074,3424,-2768,-479,-516,-803,-1904,1295,-2213,2268,1383,-238,4812,2712,3440,2144,-197,-664,-614,-1228,1737,-2473,663,-3725,-356,-1855,-1104,-372,-119,1656,4426,-308,-237,-1191,-420,-924,-122,3448,-720,3996,-1089,4007,1636,-147,3710,-644,-1242,-3790,-1197,-930,-390,-1186,2708,-56,1770,955,-618,-799,-34,-542,-748,1159,-167};
// Cout,H,W,Cin/Group
const int8_t dwcnn_05_0_weight[576] = {-91,-65,-5,127,101,109,-85,5,68,103,107,86,127,99,61,46,56,-87,-74,-57,-37,-128,-113,-96,52,10,6,52,67,-7,61,94,127,94,80,-33,-54,104,57,112,-36,-91,-96,-128,73,60,43,-128,-21,-57,28,71,102,107,79,69,58,-100,127,-106,110,67,98,-53,99,127,104,71,120,16,112,111,-98,-55,69,-108,60,37,-128,5,-29,122,121,119,115,96,8,127,119,115,-128,-11,-62,-24,-104,-6,-1,-10,-11,-8,-127,-52,1,-107,62,43,12,-87,-48,-17,102,69,-84,-48,-35,59,127,-91,-63,-56,-49,-90,-93,-125,-103,-128,42,-87,-128,30,-73,-98,-7,-108,-104,-128,-126,-91,-93,-121,46,-99,-120,79,-128,-96,-71,-75,-37,-55,-113,-112,-118,-128,5,8,-56,83,36,-48,40,97,103,98,102,-128,-42,83,100,119,107,104,1,-45,67,123,-68,127,100,127,105,87,60,89,26,71,81,-127,-115,-128,-30,24,-73,25,5,-27,16,-10,-54,127,-78,-102,72,25,-79,88,14,79,27,77,31,-28,-107,-127,-44,-36,81,127,51,36,17,75,88,89,92,-60,-52,79,-83,-31,88,127,92,108,127,51,79,113,91,72,90,45,97,91,85,85,65,100,81,127,106,114,-13,-35,-128,-16,-7,-15,118,97,109,127,-47,36,-25,-116,68,-87,-59,117,-111,-127,-63,-53,-47,-5,21,44,43,-110,-91,-115,-28,-20,-52,-105,-97,-127,-112,92,109,-42,78,103,99,101,127,71,85,110,45,-128,-86,26,-90,-89,84,69,-81,127,117,100,103,125,101,103,99,124,127,-88,-22,-42,108,110,91,-128,-100,116,88,-2,61,76,-126,-48,-128,-27,79,45,-21,14,97,23,-66,-110,-128,-78,-83,-86,-76,-77,-103,81,60,127,-105,94,85,124,64,-104,-61,-86,-95,-128,-46,-41,-6,-73,-110,103,89,97,103,-38,127,-84,83,96,-28,-117,36,-74,-91,-5,-128,-51,-91,110,-43,-83,108,-94,-124,127,-83,-107,-30,49,-52,-59,42,-128,115,89,75,63,-92,-128,-68,-99,-43,-14,-87,-26,73,83,76,-107,-18,-128,88,68,92,41,-94,80,98,99,127,127,113,26,12,38,70,87,64,127,58,56,92,127,-9,-118,123,-54,-73,2,-60,28,102,-122,75,100,105,-50,-94,127,-85,-112,38,-60,91,-127,127,-77,90,-88,109,96,71,127,116,127,116,109,87,-46,-98,-69,-48,-41,-67,-68,-89,-127,-35,-71,127,-92,-45,118,86,98,84,89,6,-60,99,-69,-58,-53,-70,-128,-128,-110,63,72,-68,-96,-38,62,57,58,39,38,127,70,-87,-123,-43,118,65,47,33,89,60,67,87,-67,-128,-53,95,40,-115,26,100,-128,4,68,89,34,-10,97,77,69,127,46,-65,-127,28,-35,18,43,-3,-2,39,6,-89,-54,-15,54,-17,23,-127,-45,18,-85,90,70,-26,19,-39,85,-127,-82};
const uint8_t dwcnn_05_0_output_zero_point = 0;
const uint8_t dwcnn_05_0_input_zero_point = 0;
const int16_t dwcnn_05_0_M[64] = {263,158,126,178,270,183,330,440,87,210,167,124,329,151,132,148,321,176,413,494,150,195,143,187,155,652,275,476,328,254,291,152,401,119,325,533,174,306,213,404,134,309,139,109,764,199,229,320,165,106,351,159,261,245,508,124,161,528,316,160,563,177,185,326};
const float dwcnn_05_0_MF[64] = {0.00802686,0.00481445,0.00384674,0.00541782,0.00823833,0.00559966,0.01007113,0.01344210,0.00265952,0.00641363,0.00508535,0.00378202,0.01003373,0.00460568,0.00403939,0.00451649,0.00979917,0.00538034,0.01261337,0.01507691,0.00459101,0.00593947,0.00434989,0.00569226,0.00474173,0.01990140,0.00838717,0.01451251,0.01000716,0.00775512,0.00887290,0.00463699,0.01223583,0.00363108,0.00991774,0.01627039,0.00529905,0.00933073,0.00648618,0.01233372,0.00407523,0.00941580,0.00423702,0.00333793,0.02330504,0.00608732,0.00698302,0.00977424,0.00503416,0.00322940,0.01072383,0.00484516,0.00795088,0.00746336,0.01549359,0.00377539,0.00490486,0.01609942,0.00965413,0.00487553,0.01716980,0.00539882,0.00563843,0.00995931};
// Cout,H,W,Cin/Group
const int16_t dwcnn_05_0_weight_size[4] = {64,3,3,1};
const int16_t dwcnn_05_0_stride_size[2] = {1,1};
const int16_t dwcnn_05_0_padding_size[2] = {1,1};
const int16_t dwcnn_05_0_groups = 64;


//=================depth_wise_separable_conv_05.3==================
// Cout
const int32_t dwcnn_05_3_bias[64] = {1536,3898,695,749,400,-3171,1232,1387,-253,3899,1366,-628,-749,1396,-1792,724,3933,2840,1363,1178,-772,1812,589,1520,739,1702,-1009,2349,4819,397,579,5184,776,-1382,2270,3439,-3,966,628,3723,873,-1135,-279,6746,423,3015,1208,330,-2901,-1340,4950,1925,1831,-2332,3816,1014,-164,502,3029,670,-2146,3482,531,-1984};
// Cout,H,W,Cin/Group
